99 300
</s> 2.6678 5.4073 -0.057711 4.4372 -0.60107 0.75343 -0.30141 -0.62832 -1.5737 0.79382 -2.2946 -0.11991 -2.3728 0.02866 0.20849 -5.7307 -0.81174 -4.0223 0.67397 0.58238 -4.4469 -2.6278 5.009 -0.024618 5.0634 -0.46664 5.6381 -1.3837 -0.65549 -2.4623 5.2745 2.4687 -0.74881 0.66634 -0.32258 0.18631 0.2285 0.39807 -1.1982 -1.2166 -0.26286 4.4413 -0.54814 -5.0835 1.8191 -0.46089 2.9743 0.41876 5.3781 0.82947 -0.38638 -0.49883 -0.14964 2.9939 -1.7396 0.15453 0.85961 0.44491 -9.4156 -0.063557 0.53783 0.34662 -0.41134 0.92506 0.23566 -2.0715 1.2145 1.2904 1.7371 1.852 3.9225 0.75025 -1.4207 0.0050005 0.7784 2.898 0.90374 1.2912 2.0936 0.029417 0.20079 0.31043 5.2678 1.0114 0.47981 0.17793 -0.50494 -0.21459 -3.1922 -0.77662 0.70557 -0.76216 0.071549 -3.1465 -3.5947 -1.9623 0.25703 -1.7623 0.61865 -1.3759 -1.0532 -1.6033 -0.55991 3.79 -0.32088 -0.82441 -0.13669 1.4441 0.72447 -0.84965 -0.5052 -0.36191 -0.14078 -1.5733 -1.02 3.3163 0.40632 0.40062 1.2628 -3.8222 0.22516 3.8076 0.32411 -2.6383 1.6146 -3.8966 3.3328 3.5519 1.0948 -0.79499 -1.2681 2.7492 0.47095 -0.61769 -1.0415 -0.99454 -0.19228 0.57166 -4.3577 -4.7183 0.075763 -0.39868 3.971 1.3043 -0.27135 -0.66264 -0.0025112 0.030641 1.398 0.48123 -0.76469 3.9703 0.63498 -0.28151 -2.1865 -0.067067 3.4052 2.0278 0.23944 -1.1347 -1.3087 -0.092896 3.7627 1.1704 -0.28121 -1.6793 0.026987 -1.3754 0.90952 -2.1573 0.052806 -1.6094 -0.47929 -2.1989 1.2528 -1.7776 -0.43595 -0.77424 0.11876 0.2412 1.7763 0.40306 -0.4556 1.6357 -0.43252 3.6918 -1.0734 -3.7041 0.41785 -0.93697 1.4734 -3.2043 -3.0248 0.061446 0.08322 -3.4095 0.15642 0.87267 0.51898 -0.81167 -1.3047 2.0009 0.6944 -0.17301 -0.8075 -0.6937 -0.49164 0.0051203 0.12187 -0.47173 0.67714 0.15322 0.61096 0.3983 0.87858 -0.87753 -0.17568 0.94685 4.0181 -1.2631 1.3263 -0.77903 0.22338 -0.27763 2.1103 -2.4448 0.41383 1.9609 0.72571 0.68628 0.8838 -0.92292 -1.6811 1.1767 0.25137 -1.0274 -0.79218 -5.3326 -2.8661 -0.73778 4.6983 1.9508 -0.77238 0.42494 -0.45894 0.11132 3.1827 2.8483 -5.0588 -5.415 2.8935 -1.101 -0.174 -2.3072 1.9372 2.8969 -1.6221 3.7839 -1.4356 0.5457 -0.18208 1.4389 1.1667 1.0566 1.2046 -1.6527 1.9451 1.9696 0.91622 -1.4157 0.79037 2.4408 5.8751 0.23607 3.2263 1.7405 1.0396 -2.4564 1.2402 2.5426 -3.8128 -0.63255 -2.6616 7.7623 4.3158 0.76138 -6.4936 -1.7963 -0.053492 -0.54272 -0.24584 2.9902 4.0874 -0.55842 -2.0808 1.372 1.813 -1.8354 0.36975 2.8985 
， -0.11755 1.1515 -0.63657 0.40555 0.72595 -0.3355 -0.72812 0.14587 0.3701 -0.012517 0.83853 0.12817 1.4717 -1.0173 0.13362 -0.7373 1.0172 -0.38869 -1.2434 -0.65756 -1.1242 1.1522 1.1802 -0.09537 0.52584 -0.35061 1.0218 0.21769 0.74341 0.31571 1.0083 -0.92691 -0.95385 -0.79458 -0.79729 1.1156 1.0963 -0.45625 0.037415 1.352 0.75421 1.1794 1.1842 -1.2941 -0.40731 -0.40089 -0.66912 -0.40501 0.58824 -0.84668 1.2972 -0.23047 -0.5297 -0.53796 0.12708 -0.95222 -1.108 -1.2432 -3.4294 0.41717 1.0598 -0.11347 0.84707 1.2984 0.50155 1.0894 -1.1805 -0.60147 -0.56826 -0.39834 1.3499 -0.84374 1.3048 -0.53313 -0.86581 0.34372 -0.050677 -0.87018 -0.40417 -1.2127 -0.26862 0.0093754 0.97982 -0.755 -0.75913 -0.89263 0.14038 0.55352 0.072353 -1.023 -0.70033 0.84196 -0.15184 -0.072161 -0.90022 1.1784 0.74479 0.68606 -0.034428 0.24016 0.64789 0.72403 -0.60434 0.84079 -0.70364 0.61513 -0.02579 -0.7633 -0.76647 0.0098179 0.20547 -0.67072 -0.049157 0.5809 0.30855 0.28008 -0.73643 0.10695 -0.699 -0.91656 -0.6451 0.82047 0.83303 0.071847 -0.69994 -0.97062 0.74908 0.59917 -1.1314 0.35056 0.79322 0.22107 -0.92537 1.149 -1.2312 0.21465 -0.42667 -0.34353 -0.86058 -0.36103 -0.11188 0.85915 1.2904 -1.1942 -0.80739 0.37107 -1.458 -0.077489 -0.69788 -0.33084 0.47815 0.86806 -0.14881 0.40856 0.92588 -0.73418 0.35627 -0.52242 0.0074681 0.69303 0.37777 0.35838 0.36487 -0.16214 -0.041844 0.23812 -0.17794 1.0011 0.51071 0.28919 0.70423 0.65135 1.0428 -0.17299 0.13357 0.074384 0.82367 0.85157 -0.034962 -0.46866 -0.87277 -0.60555 0.28791 -0.0851 -0.61095 0.80359 -0.033585 -0.73066 -0.46653 0.71639 -0.2327 -0.095215 -0.56859 -0.71891 -0.22024 -0.59415 -0.88147 -0.85277 -0.004258 0.57725 0.0080566 -0.44869 -0.19997 -0.7929 0.096872 0.12946 0.20161 -0.36704 -0.16692 0.26077 -0.91914 0.33088 -0.58754 0.48365 -0.75615 0.35147 0.26989 -0.15074 0.837 0.6057 -0.5257 0.73181 0.35879 -0.20345 -0.93324 0.73444 -0.2828 -0.23614 -1.0274 0.086565 -0.74221 -0.42296 0.32351 -0.47082 -0.14649 1.0329 0.56068 -1.0011 -0.3067 -0.34837 0.73525 -1.0093 0.79716 0.018814 -0.28633 -0.0029297 -0.39939 -0.17663 -0.71953 0.21425 -0.28373 -0.099483 -0.83807 0.092067 -0.33957 -0.043222 0.62452 0.83657 -1.6607 0.055234 0.60276 -0.34178 -0.3134 -0.079132 -0.37722 -0.26869 -0.83441 -1.0277 -1.8789 -1.1845 0.0034703 0.50205 1.152 -0.72817 -0.11089 -0.32683 -0.027428 1.0426 -0.31464 -0.67479 0.50579 1.2178 0.31168 0.82804 0.11968 -0.3572 0.42371 0.37662 -0.92691 -0.1885 -0.76741 -1.0745 -0.61424 -0.76858 -0.11727 -0.79943 0.27754 0.1388 1.0023 0.31335 
的 -0.16391 1.0639 -0.72269 0.38855 0.80669 -0.39772 -0.64854 -0.02034 0.32016 -0.018594 0.75796 0.095875 1.3857 -0.88656 0.089787 -0.78805 0.82156 -0.45274 -1.3599 -0.58308 -1.2423 1.2513 1.3082 0.007115 0.56409 -0.50618 0.96601 0.22565 0.79516 0.29112 0.94196 -1.048 -0.89431 -0.69267 -0.93206 1.1966 1.1582 -0.56526 0.17063 1.43 0.76709 1.2418 1.1196 -1.2855 -0.39796 -0.40813 -0.74501 -0.40786 0.56266 -0.91049 1.2451 -0.21408 -0.51217 -0.53418 0.11298 -1.1111 -1.1714 -1.3583 -3.2776 0.44865 1.1381 -0.14361 0.98352 1.3363 0.59738 1.0656 -1.0906 -0.58233 -0.55804 -0.38899 1.4958 -0.91816 1.2217 -0.56197 -0.91967 0.28408 -0.066672 -0.82325 -0.57572 -1.1177 -0.25858 0.0071498 0.89017 -0.80305 -0.81328 -0.8987 0.24938 0.59711 0.06536 -1.0975 -0.76651 0.89634 -0.13244 -0.022426 -0.90831 1.2333 0.86232 0.72508 -0.017962 0.19577 0.64059 0.65498 -0.57352 0.95553 -0.6862 0.67117 0.027553 -0.81152 -0.74209 0.078452 0.21996 -0.75938 -0.13916 0.62511 0.24316 0.36103 -0.73676 0.18879 -0.60778 -0.97829 -0.77176 0.93991 0.75902 0.02356 -0.69437 -0.89607 0.73124 0.74123 -1.1011 0.35925 0.81056 0.22771 -0.90569 1.0399 -1.1795 0.36409 -0.40508 -0.39343 -0.89886 -0.51658 0.078766 0.88267 1.2621 -1.179 -0.83421 0.41145 -1.5983 -0.13313 -0.83042 -0.29095 0.56606 0.85247 -0.10356 0.29817 1.0145 -0.80707 0.33252 -0.41859 0.0020578 0.74378 0.35127 0.34332 0.39476 0.007952 0.056837 0.19579 -0.25149 0.87891 0.43723 0.37107 0.57137 0.68381 1.0813 -0.047799 0.091588 0.11153 0.84817 0.86699 -0.067174 -0.60056 -0.76134 -0.55208 0.30215 0.0099575 -0.46225 0.83512 -0.010748 -0.79808 -0.50147 0.83243 -0.31315 -0.083514 -0.70079 -0.56033 -0.064789 -0.69048 -0.88293 -0.74071 0.026856 0.58349 -0.047795 -0.44563 -0.17875 -0.60016 0.072793 0.15451 0.262 -0.47335 -0.14017 0.40792 -1.064 0.39888 -0.51001 0.39962 -0.85021 0.17305 0.28913 -0.13508 0.93687 0.60144 -0.60228 0.79056 0.33801 -0.057203 -1.0779 0.82638 -0.29985 -0.23117 -1.0227 0.054373 -0.88121 -0.381 0.36903 -0.71654 -0.082499 1.1802 0.39736 -1.0854 -0.20758 -0.22772 0.69006 -1.0682 0.72935 0.0012665 -0.24493 -0.024806 -0.45564 -0.23917 -0.94934 0.11925 -0.40391 0.037711 -0.83502 0.15569 -0.41158 -0.062988 0.54909 0.7553 -1.5463 -0.039758 0.57422 -0.40611 -0.29411 -0.1694 -0.27391 -0.20142 -0.87102 -0.92617 -1.8897 -1.2419 -0.13943 0.47293 1.1383 -0.66022 -0.013899 -0.27761 0.017229 1.0169 -0.11558 -0.65791 0.61787 1.284 0.18424 0.8751 0.030483 -0.22935 0.36822 0.43399 -0.8039 -0.020275 -0.72834 -1.1894 -0.76395 -0.69246 -0.0011771 -0.81935 0.51514 0.065656 1.0131 0.32171 
。 -0.11135 1.0647 -0.7269 0.40628 0.75967 -0.4395 -0.67445 -0.00068528 0.334 -0.073545 0.86018 0.1166 1.5329 -0.96069 0.038587 -0.71681 0.95733 -0.36321 -1.2451 -0.63231 -1.0828 1.2597 1.3113 -0.039019 0.59483 -0.37199 1.0725 0.1142 0.83925 0.30655 0.97327 -0.99229 -1.0349 -0.75727 -0.95462 1.0704 1.0487 -0.51019 0.093292 1.4297 0.81976 1.2428 1.2153 -1.2999 -0.46447 -0.46587 -0.73001 -0.36324 0.55043 -0.85097 1.3182 -0.24549 -0.53393 -0.49714 0.14062 -0.97311 -1.121 -1.3191 -3.5292 0.56171 1.206 -0.040892 0.82357 1.332 0.48561 1.1374 -1.1736 -0.58804 -0.54609 -0.53303 1.4395 -1.0149 1.3314 -0.53386 -0.95477 0.34178 -0.020717 -0.80404 -0.44836 -1.2403 -0.25365 -0.0043488 0.9036 -0.81013 -0.80469 -1.029 0.14141 0.66307 0.11789 -1.039 -0.70689 0.84472 -0.084307 -0.10376 -0.89263 1.2673 0.88642 0.75955 0.01251 0.30564 0.71313 0.77671 -0.64903 0.84658 -0.7149 0.6062 -0.060909 -0.77958 -0.75225 0.055346 0.1889 -0.81794 -0.070914 0.57888 0.30123 0.24564 -0.79824 0.14589 -0.73124 -0.92957 -0.66834 0.91881 0.7874 -0.017003 -0.76441 -0.99948 0.8636 0.69584 -1.0522 0.40479 0.84573 0.23645 -1.036 1.0705 -1.2154 0.23553 -0.46351 -0.29119 -0.96884 -0.4246 -0.00028365 1.0071 1.3576 -1.2042 -0.81542 0.46055 -1.6009 -0.06097 -0.71878 -0.3193 0.51667 0.88538 -0.10049 0.48504 0.97804 -0.79125 0.40547 -0.50112 -0.069143 0.84607 0.30273 0.31371 0.40599 0.025783 -0.093013 0.21691 -0.11679 1.0182 0.48424 0.27095 0.69323 0.56874 1.0723 -0.23484 0.091649 -0.031869 0.72908 0.89486 0.032726 -0.48175 -0.94946 -0.52933 0.26982 -0.0049264 -0.57568 0.89797 0.030481 -0.87983 -0.41614 0.75726 -0.14941 -0.093157 -0.59366 -0.7671 -0.082546 -0.61794 -0.89542 -0.94287 0.011853 0.65119 0.059392 -0.37089 -0.14839 -0.70816 0.11701 0.13988 0.26287 -0.41181 -0.15876 0.33778 -1.0226 0.43722 -0.5067 0.38615 -0.75737 0.26143 0.26541 -0.018066 0.89825 0.56539 -0.64669 0.72329 0.39947 -0.16039 -1.0832 0.73342 -0.23041 -0.29213 -0.98246 0.11809 -0.89504 -0.41162 0.33004 -0.42372 -0.077721 1.0324 0.41693 -1.0815 -0.30561 -0.29052 0.72991 -1.0593 0.85588 0.10907 -0.14915 -0.013585 -0.44889 -0.26272 -0.80324 0.24383 -0.20875 0.020137 -0.82143 0.31457 -0.33516 -0.03758 0.54477 0.88508 -1.7078 0.11212 0.55022 -0.39692 -0.27601 -0.01746 -0.34218 -0.27296 -0.91132 -1.0356 -1.8936 -1.0944 -0.003758 0.60734 1.1701 -0.70068 -0.058812 -0.26666 -0.1081 1.0553 -0.25668 -0.69684 0.51134 1.1638 0.24862 0.89085 0.02839 -0.30022 0.43654 0.35061 -0.8437 -0.10549 -0.68973 -1.1385 -0.62545 -0.78462 -0.07789 -0.85508 0.25578 0.15973 1.0776 0.27378 
- -0.3113 0.76702 -0.57622 -0.047241 1.1086 -0.39628 -0.65508 0.24881 0.51296 -0.13365 0.99122 0.27863 1.8536 -0.96129 0.3127 -0.49805 1.1185 -0.37069 -1.563 -0.87005 -0.88143 1.0872 1.0308 0.12216 0.55031 -0.69395 0.94132 0.24842 0.71477 0.54653 1.1802 -0.85558 -0.85268 -1.0576 -0.76904 1.0348 1.1912 -0.53702 0.020477 1.5839 0.82014 1.1524 1.3554 -1.1399 -0.57765 -0.22523 -0.82933 -0.32614 0.37268 -0.95194 1.0234 -0.58961 -0.46853 -0.13794 0.38538 -1.0741 -1.1102 -1.2012 -3.8963 0.74201 1.2906 -0.25133 0.82952 1.2515 0.53412 0.92183 -0.98626 -0.54363 -0.40191 -0.043152 1.7046 -0.75053 1.4682 -0.71492 -0.66241 0.74541 -0.27266 -0.86201 -0.64381 -1.3227 -0.32567 0.20901 0.91246 -0.84132 -0.7357 -1.0161 0.37082 0.44794 0.37 -1.2757 -0.59814 0.82132 -0.032082 0.17559 -0.79327 1.2744 0.70274 0.47288 0.24692 0.3412 0.33284 0.5013 -0.69852 1.1073 -0.90216 0.71869 -0.16619 -0.67895 -0.98444 -0.21214 0.29198 -0.67936 0.073107 0.3461 0.19625 0.61133 -0.52527 0.16124 -1.0164 -0.91478 -0.76797 0.92845 0.71828 0.10066 -0.73907 -1.3494 1.0469 0.94816 -0.93213 0.25003 0.98663 0.48022 -0.88619 0.97494 -1.3998 0.05215 -0.54517 -0.14878 -1.031 -0.52236 -0.015674 1.1276 1.5972 -1.2091 -0.78966 0.68384 -1.9083 0.10133 -0.59186 0.10955 0.72169 0.89056 -0.22067 0.55389 1.1088 -0.91059 0.37573 -0.49493 -0.25702 0.69511 0.40516 0.34052 0.6808 -0.27126 -0.54265 0.15147 -0.14642 1.1535 0.60549 0.51132 0.5299 0.83338 1.1429 -0.12369 0.034773 -0.0069406 1.0281 0.70748 0.19499 -0.4249 -0.8705 -0.43069 0.33621 0.25129 -0.45306 1.1491 0.046691 -0.50628 -0.69804 0.76624 -0.16799 -0.50413 -0.94353 -0.49981 -0.23357 -0.63328 -0.7849 -0.778 -0.18588 0.55192 -0.083649 -0.54096 0.13202 -0.82776 0.27397 0.18365 0.34513 -0.63518 -0.46516 0.39686 -0.73969 0.12462 -0.71402 0.22124 -0.35713 0.13851 0.70927 0.094138 1.2802 0.60437 -0.59487 0.56228 0.33425 -0.39166 -1.4133 0.68597 -0.20753 -0.36081 -1.0922 0.22571 -0.87782 -0.42622 0.15853 -0.53687 -0.018551 0.95753 0.49335 -1.1661 -0.29412 -0.19086 0.79027 -0.94211 0.77591 -0.044394 -0.34389 -0.048601 -0.76168 -0.040972 -0.57082 0.38944 -0.02703 -0.16438 -0.84106 0.23933 -0.56327 -0.083069 0.73874 0.7403 -1.4623 0.19633 0.82503 -0.47096 -0.73191 -0.18382 -0.6558 -0.43418 -0.8728 -0.88419 -2.1608 -1.2234 -0.14594 0.67768 1.2362 -0.33508 -0.12258 -0.096261 -0.20495 0.83761 -0.15615 -0.77627 0.17186 0.93599 0.24166 1.3812 0.019897 -0.35154 0.32732 0.62424 -0.76166 -0.094569 -0.53975 -1.2885 -0.52359 -1.0248 0.37638 -1.1777 0.15046 0.50582 0.66999 -0.082084 
年 -0.34963 0.81747 -0.8152 0.30967 0.86688 -0.50124 -0.67592 0.043772 0.42058 -0.053994 1.0069 0.19998 1.7628 -1.0041 0.14964 -0.57656 1.1697 -0.52283 -1.196 -0.79551 -0.86994 1.2446 1.1014 -0.19114 0.50063 -0.43651 1.2164 0.092778 0.55848 0.37097 0.94775 -0.94707 -1.1779 -0.66806 -1.0086 1.0707 1.0337 -0.38583 0.05317 1.6096 0.94598 0.95928 1.2969 -1.3543 -0.23342 -0.39971 -0.91035 -0.42437 0.77314 -0.72145 1.4155 -0.18516 -0.50151 -0.51414 0.14625 -0.86884 -1.0606 -1.2296 -3.2332 0.60277 1.5083 -0.086633 0.72935 1.4024 0.37737 1.1659 -1.283 -0.74483 -0.45442 -0.4175 1.3604 -1.1822 1.5143 -0.60758 -0.86044 0.28221 -0.17386 -0.88864 -0.61657 -1.3108 -0.21504 0.027782 0.90649 -0.8116 -0.70368 -1.2917 0.16556 0.75025 -0.15813 -1.1982 -0.74384 0.97939 -0.22697 0.0030343 -0.66949 1.2229 0.77645 0.61337 0.12012 0.51153 0.63573 0.59353 -0.64162 0.84621 -0.61564 0.57055 -0.21196 -0.77926 -0.90702 0.095267 0.20731 -0.89909 -0.070816 0.58956 0.31144 0.27466 -0.80569 0.2321 -1.0929 -0.69664 -0.71207 0.8698 0.74943 -0.10334 -0.91241 -1.1506 1.0453 0.87223 -0.96576 0.36985 0.84168 0.23422 -0.85498 0.79828 -1.3327 0.39157 -0.64964 -0.34604 -0.56041 -0.66075 0.045692 0.79054 1.4547 -1.32 -0.94102 0.39427 -1.7286 0.04045 -0.66279 -0.29874 0.65428 1.075 -0.12778 0.44281 1.2048 -0.74089 0.4171 -0.381 -0.2713 0.87262 0.49782 0.48365 0.29893 -0.2326 -0.048113 0.24485 -0.06789 1.248 0.60003 0.048549 0.93307 0.57716 0.93188 -0.13824 0.05164 -0.22205 0.68596 0.89845 0.17604 -0.68264 -0.79116 -0.55551 0.18556 0.12783 -0.52912 0.974 -0.11056 -0.84855 -0.32045 0.70746 -0.071542 -0.25917 -0.46913 -0.63887 -0.30162 -0.51503 -0.95543 -0.9903 -0.055634 0.65559 0.15882 -0.3256 0.018398 -0.89081 0.16708 0.32731 0.42526 -0.46134 -0.052628 0.26057 -0.97053 0.43763 -0.68546 0.23637 -0.5662 0.057953 0.62688 0.015721 1.0542 0.41724 -0.50132 0.65495 0.61864 -0.17465 -1.1106 0.77055 -0.36537 -0.34359 -0.96634 0.10363 -0.99132 -0.51859 0.18787 -0.47927 -0.083805 0.87894 0.44345 -0.97105 -0.52616 -0.14098 0.85957 -0.99543 0.82792 0.29051 -0.020874 -0.24418 -0.48956 -0.17827 -0.7691 0.23448 -0.20131 -0.13185 -0.9421 0.28138 -0.52984 -0.15951 0.47443 0.9375 -1.6988 0.038163 0.30773 -0.37742 -0.33545 -0.14621 -0.17719 -0.43683 -0.88871 -0.86793 -2.053 -1.0384 0.20537 0.42497 1.2058 -0.42628 0.10218 -0.17827 -0.084844 1.2585 -0.27149 -0.79415 0.28245 0.7917 0.098162 1.1635 0.30437 -0.21863 0.30481 0.53592 -1.0251 -0.14284 -0.49873 -0.73769 -0.51617 -0.90228 -0.21941 -1.0494 0.11633 0.30735 0.96781 -0.15664 
' -0.27204 0.89439 -0.61555 0.026297 1.1639 -0.4941 -0.79004 0.14071 0.54836 -0.17819 1.0556 0.18448 1.8295 -1.0014 0.073843 -0.6156 0.91259 -0.52734 -1.5948 -0.80669 -1.0194 1.2573 1.037 0.011403 0.68631 -0.65713 1.1144 0.26778 0.53634 0.31011 1.1691 -0.81452 -0.93585 -1.1083 -0.73304 1.1818 1.1686 -0.59956 0.1028 1.3325 0.84251 1.245 1.3885 -1.4936 -0.48087 -0.31553 -0.90158 -0.3436 0.77672 -0.84696 1.2693 -0.071557 -0.55993 -0.57291 0.41579 -1.1335 -1.1789 -1.3191 -3.6612 0.57972 1.2166 -0.11289 0.85703 1.42 0.50636 1.036 -1.2239 -0.81954 -0.36801 0.0011945 1.6647 -0.8028 1.5486 -0.82021 -0.85583 0.50759 -0.16544 -1.0649 -0.42133 -1.4498 -0.18222 -0.16995 0.98959 -0.82138 -0.87773 -0.98716 0.26508 0.57744 -0.098511 -1.1783 -0.6696 0.79727 -0.058473 0.068865 -0.81027 1.4954 0.57932 0.48797 0.1517 0.066738 0.44595 0.31221 -0.55013 1.2583 -0.81671 0.44471 -0.20885 -1.0335 -0.84422 -0.063333 0.0054038 -0.77113 -0.096959 0.41087 0.35769 0.40759 -0.52702 0.16085 -0.7559 -0.98755 -0.8323 0.87062 0.78298 -0.090332 -0.76852 -1.1216 0.9025 0.79982 -1.1297 0.44254 0.80297 0.37134 -0.90292 1.0111 -1.4601 0.23536 -0.61482 -0.55034 -0.9389 -0.63442 0.07229 1.0636 1.4724 -1.2836 -0.84411 0.4246 -1.5951 -0.087545 -0.65358 -0.17572 0.68374 0.93403 -0.18615 0.37416 1.0485 -0.76185 0.41732 -0.53957 -0.11872 0.7326 0.49346 0.5971 0.41425 -0.21225 -0.059113 0.16508 -0.26162 0.8653 0.95196 0.45877 0.59368 0.3924 0.99612 -0.28969 0.16574 0.10748 0.66866 0.82582 0.070962 -0.49375 -0.92733 -0.45711 0.42169 0.26857 -0.53991 1.0494 0.15501 -0.68787 -0.44419 0.77668 -0.26151 -0.13281 -0.59211 -0.45568 0.1613 -0.3156 -1.0148 -0.77011 -0.1698 0.64865 0.04805 -0.58402 -0.031869 -0.97231 0.066175 0.157 0.22299 -0.68817 -0.37282 0.31242 -0.8978 0.30544 -0.60897 0.39156 -0.49081 0.1583 0.63974 -0.035993 1.1565 0.58417 -0.47422 0.64685 0.50729 -0.52934 -1.1439 0.47868 -0.16919 -0.22707 -1.1849 0.38389 -0.77694 -0.26857 0.39107 -0.92411 -0.087937 0.84527 0.74415 -1.2042 -0.068002 -0.2672 0.82746 -0.93347 0.78939 -0.18068 -0.4645 -0.12153 -0.66875 -0.26531 -0.7311 -0.21305 -0.39589 0.14163 -0.95663 -0.061506 -0.57943 0.092028 0.42732 0.58329 -1.6188 -0.057743 0.83424 -0.25726 -0.65868 -0.30415 -0.39665 -0.064558 -0.65936 -0.94444 -1.9208 -1.1974 -0.11223 0.4573 1.1603 -0.75274 -0.17418 -0.055647 0.080468 0.73836 -0.17803 -0.74372 0.44126 0.96971 0.34003 1.3587 -0.11663 -0.50324 0.44095 0.80104 -0.62403 -0.037625 -0.61198 -0.86282 -0.8337 -0.91928 0.24902 -0.97946 0.33778 0.46613 1.0567 0.25563 
（ -0.43797 0.79885 -0.72595 0.044172 0.95061 -0.51372 -0.59438 0.10962 0.34189 -0.0048479 1.1185 0.18102 1.7635 -0.77452 -0.094979 -0.74295 0.94602 -0.49046 -1.4388 -0.556 -1.0251 1.3625 0.99146 -0.011699 0.65986 -0.65635 1.1888 0.24837 0.69002 0.36769 1.0261 -0.89382 -0.95582 -0.80327 -0.91915 1.0822 1.1352 -0.47134 0.079376 1.498 0.71674 0.99782 1.1808 -1.4534 -0.31898 -0.48491 -0.71324 -0.49462 0.61525 -0.77175 1.2743 -0.2265 -0.55395 -0.46392 0.024824 -0.94164 -1.1145 -1.3892 -3.4057 0.3298 1.2008 -0.11749 0.78432 1.3015 0.48779 1.1066 -1.1718 -0.64067 -0.54087 -0.13008 1.6033 -0.93667 1.3873 -0.65988 -0.95993 0.36415 0.025364 -0.95245 -0.29996 -1.2394 -0.29323 0.012541 0.88806 -0.78702 -0.77828 -1.0806 0.065024 0.69521 -0.0113 -1.0878 -0.54388 0.86407 0.099895 0.11841 -0.59774 1.3512 0.78599 0.57431 0.1434 0.30731 0.43004 0.4121 -0.56979 1.1726 -0.70386 0.45503 -0.29772 -0.77213 -0.78421 0.082018 0.083258 -0.93155 0.026372 0.52254 0.3235 0.43478 -0.65831 0.26634 -0.81763 -0.71294 -0.68194 0.79621 0.87075 -0.07448 -0.65249 -0.98464 0.99447 0.70374 -1.0112 0.31133 0.70146 0.30486 -0.95332 0.97804 -1.2432 0.25943 -0.41132 -0.35878 -0.9435 -0.60721 -0.011593 0.83176 1.5527 -1.2492 -0.88748 0.53984 -1.6897 -0.066148 -0.74151 -0.059004 0.53236 1.118 0.05001 0.30327 1.0701 -0.64796 0.61473 -0.40683 -0.20044 0.83904 0.39467 0.35814 0.58559 -0.20249 0.063285 0.14675 -0.37172 0.89806 0.7953 0.23139 0.76059 0.44843 1.0618 -0.2026 0.36762 -0.0497 0.76533 0.84582 0.10865 -0.38032 -0.84406 -0.40179 0.34495 0.28479 -0.55986 1.0464 0.03461 -0.77842 -0.38562 0.82956 -0.24855 -0.16424 -0.75241 -0.68062 0.0032719 -0.67716 -1.0868 -0.77121 -0.012668 0.46078 0.026369 -0.46547 0.24735 -0.79882 0.28756 0.12375 0.25822 -0.68674 -0.31415 0.2717 -0.88827 0.33657 -0.50579 0.40063 -0.59449 0.24106 0.61477 0.20549 0.97164 0.64808 -0.44745 0.67236 0.59875 -0.38509 -0.8875 0.53973 -0.24725 -0.34353 -1.1544 0.21442 -0.82629 -0.53011 0.32414 -0.54186 0.0075652 0.73518 0.42426 -1.1508 -0.25049 -0.13042 0.86769 -1.0073 0.82125 -0.18475 -0.28988 -0.10846 -0.51648 -0.22027 -0.69409 -0.062744 -0.34447 0.066677 -0.94522 0.13177 -0.38843 0.16868 0.62932 0.6735 -1.541 -0.016556 0.60541 -0.48401 -0.54126 0.01862 -0.41665 -0.34088 -0.92447 -0.92174 -1.9334 -0.87698 0.02764 0.46576 1.0236 -0.65525 -0.18458 -0.19345 -0.1334 1.1631 -0.27359 -0.56037 0.40068 0.98519 0.24913 1.1257 0.13271 -0.43239 0.42125 0.5073 -0.6829 -0.14915 -0.65423 -1.0122 -0.70445 -0.72479 0.12466 -0.94352 0.22915 0.62297 0.77596 0.12753 
） -0.44407 0.85986 -0.69317 0.13239 0.94246 -0.51753 -0.62946 0.093921 0.33927 0.011414 1.0846 0.16333 1.7642 -0.82366 -0.072838 -0.74942 0.94924 -0.49161 -1.4143 -0.53818 -1.0131 1.3398 1.0076 -0.018487 0.66272 -0.65531 1.1842 0.24502 0.66314 0.39901 0.9985 -0.8815 -0.95891 -0.83983 -0.9083 1.0973 1.1282 -0.47818 0.10512 1.5129 0.69393 1.0134 1.2026 -1.4376 -0.31768 -0.44611 -0.72042 -0.45346 0.61726 -0.79788 1.2836 -0.21519 -0.57688 -0.49766 0.062753 -0.94472 -1.122 -1.3796 -3.4875 0.30959 1.2173 -0.06433 0.84779 1.3184 0.50534 1.1194 -1.1479 -0.58733 -0.56493 -0.15437 1.5965 -0.9991 1.3849 -0.65016 -0.9353 0.32272 -0.018093 -0.97745 -0.3114 -1.2534 -0.30848 0.067352 0.90841 -0.76708 -0.71715 -1.1362 0.079838 0.71337 -0.007952 -1.0943 -0.58059 0.91042 0.11846 0.15576 -0.62899 1.3318 0.83109 0.59598 0.14075 0.3198 0.50142 0.42078 -0.58837 1.1498 -0.71751 0.46922 -0.23305 -0.76607 -0.7676 0.074153 0.094914 -0.94816 0.059786 0.50299 0.27985 0.42351 -0.61551 0.26826 -0.81144 -0.7172 -0.73829 0.82104 0.86111 -0.053101 -0.69291 -1.0375 0.98985 0.68426 -1.0277 0.29147 0.71764 0.2123 -0.99618 1.0105 -1.2157 0.28533 -0.39721 -0.40145 -0.94167 -0.62411 -0.026316 0.85016 1.5618 -1.2779 -0.92841 0.52685 -1.6898 -0.081491 -0.74778 -0.10426 0.46791 1.157 0.021197 0.33599 1.0758 -0.67433 0.61435 -0.3902 -0.19478 0.8076 0.37829 0.3479 0.59684 -0.24676 0.03081 0.11815 -0.30126 0.923 0.78355 0.26095 0.73643 0.43283 1.0705 -0.20526 0.32809 -0.10033 0.73842 0.8867 0.10203 -0.45881 -0.86017 -0.4071 0.33934 0.24604 -0.58678 0.97592 0.00049428 -0.8347 -0.37062 0.78436 -0.22613 -0.16772 -0.69685 -0.72321 0.0061079 -0.69118 -1.1397 -0.76297 -0.059636 0.48908 0.024078 -0.44816 0.284 -0.78316 0.27251 0.16173 0.30722 -0.64963 -0.32237 0.24799 -0.86122 0.36744 -0.51984 0.34235 -0.57704 0.24067 0.61635 0.20183 0.96969 0.64719 -0.45755 0.64999 0.5481 -0.3411 -0.92261 0.57009 -0.19882 -0.32867 -1.1091 0.18118 -0.8219 -0.51761 0.35714 -0.56914 0.072517 0.77539 0.42249 -1.1536 -0.27749 -0.18347 0.86619 -1.0842 0.79039 -0.16984 -0.21302 -0.099618 -0.48189 -0.19327 -0.71659 -0.040876 -0.37446 0.018908 -0.94404 0.15031 -0.4341 0.12386 0.67163 0.71204 -1.5433 -0.030486 0.59829 -0.47937 -0.51431 0.026001 -0.35527 -0.3059 -0.93843 -0.88157 -1.9143 -0.94018 0.017779 0.4277 1.0095 -0.65843 -0.18047 -0.18094 -0.10965 1.1925 -0.31047 -0.57066 0.42306 0.98402 0.2157 1.0566 0.16685 -0.41779 0.38794 0.49657 -0.71757 -0.12839 -0.62158 -1.0371 -0.65178 -0.69037 0.093863 -0.91801 0.23923 0.59487 0.79811 0.13638 
} -0.34844 0.72205 -0.27432 -0.39762 0.86327 -0.50371 -0.85173 0.15029 0.31719 -0.061438 1.1682 0.32287 1.7331 -0.30888 0.10867 -0.85291 1.4963 -0.020281 -1.6937 -0.76654 -0.60899 1.5962 0.49841 0.45101 0.45468 -0.46636 1.1943 0.14148 0.95481 0.4986 1.256 -1.0979 -1.6919 -1.1435 -1.1534 1.0314 1.5789 -0.18243 -0.010812 1.7685 0.91116 1.0027 1.3514 -1.5375 -0.44065 -0.58128 -0.63266 -0.19045 0.9958 -0.80154 1.0082 -0.61009 -0.93213 -0.168 0.25221 -1.4146 -0.95835 -1.2833 -4.2398 0.72992 1.2796 0.21756 0.7438 1.0523 0.052529 1.2874 -1.0664 -0.88159 -0.34801 -0.14539 1.3703 -0.81867 1.5575 -0.49816 -0.86743 0.64294 -0.71731 -1.2324 -0.89324 -1.5231 0.19752 -0.17906 1.2685 -0.99718 -1.2468 -0.95508 0.69348 0.35157 -0.28425 -1.4541 -1.0112 1.2839 -0.34406 -0.30178 -1.1087 1.3928 1.1537 0.11944 0.073334 0.60943 0.3015 0.47679 -0.82336 1.4426 -0.4855 0.69586 -0.44033 -0.56247 -1.3016 0.10501 0.50157 -1.203 -0.079169 0.64118 0.52128 0.22386 -0.36958 0.6216 -0.94303 -0.84813 -0.82593 0.89233 0.72197 -0.12837 -0.76453 -1.2938 0.77431 0.46305 -1.3012 -0.19219 0.62183 0.69758 -1.4361 1.2062 -1.3273 0.5717 -0.52807 -0.254 -1.0904 -0.5553 0.23436 0.97206 1.6298 -1.6397 -1.2873 0.75713 -1.692 -0.28937 -0.96285 -0.34216 0.36331 0.73087 -0.44123 0.21609 0.95598 -0.85926 0.53102 -0.48352 -0.45289 0.37195 0.435 0.49106 0.51432 0.03329 0.0127 0.2634 -0.64777 1.1707 1.0008 0.36176 0.6558 0.5208 1.1442 0.29741 -0.34137 -0.18433 0.9006 0.85346 -0.17139 -0.53544 -1.0712 -0.69583 0.46935 -0.1701 -0.34596 0.50919 0.044805 -0.50469 -0.65513 0.46371 -0.13783 -0.28348 -0.69428 -0.19814 -0.026267 -0.50457 -0.53034 -0.62225 -0.1352 0.57315 0.0013559 -0.62755 0.094169 -1.533 0.39611 0.1705 0.2848 -0.83168 -0.86234 0.36207 -1.1368 0.6666 -0.81562 -0.12312 -0.085667 -0.046849 0.7731 0.0073242 1.3621 0.77771 -0.3799 0.78772 0.61098 -0.54973 -1.956 1.2307 -0.062042 0.030814 -1.2304 0.31631 -1.0294 -0.50401 0.50046 -1.0515 -0.1127 1.3759 0.6979 -1.3355 -0.1859 -0.40161 1.44 -0.75784 0.9321 -0.14166 -0.37013 0.067348 -0.60676 0.00089809 -0.62821 0.3584 -0.12939 0.11502 -0.96181 0.68433 -0.84976 0.22127 0.41452 1.0204 -1.1295 0.055532 0.70987 -0.80909 -0.47917 -0.04119 -0.70047 -0.28978 -0.72768 -1.0705 -2.5583 -0.98627 0.32881 0.7862 1.3631 -0.4013 0.48086 -0.052316 -0.43598 0.53517 0.12534 -0.63688 0.87136 1.1467 0.0040196 0.74737 -0.43429 -0.021083 0.31144 -0.023786 -0.99506 -0.060654 -0.87424 -1.103 -1.1544 -0.8996 0.34374 -1.611 0.28111 0.071368 1.3431 0.43221 
、 -0.29391 0.97375 -0.79129 0.12683 0.85473 -0.36033 -0.75303 0.060185 0.37576 -0.20833 0.94266 0.1682 1.5995 -1.0774 0.14966 -0.67386 0.95475 -0.49871 -1.3488 -0.69712 -0.94209 1.3665 1.2456 0.1381 0.8001 -0.60482 1.1798 0.25831 0.88644 0.21307 0.97909 -0.94325 -0.98587 -0.89906 -0.82081 1.1409 1.0611 -0.69693 0.061301 1.5064 0.6754 1.3121 1.1656 -1.3926 -0.25236 -0.56462 -0.61257 -0.47763 0.77391 -0.87359 1.2569 -0.27299 -0.44718 -0.44967 0.049107 -1.1453 -1.1173 -1.3436 -3.384 0.51858 1.1147 -0.22695 0.93217 1.395 0.50292 1.048 -0.88838 -0.79188 -0.50724 -0.055368 1.3631 -0.86605 1.2823 -0.76297 -0.83158 0.42671 -0.11449 -0.89505 -0.39464 -1.5587 -0.38696 -0.19136 0.86836 -0.77727 -0.75224 -1.0787 0.10876 0.44151 0.18049 -1.14 -0.69944 0.70336 0.054205 0.1695 -0.73633 1.4182 0.71169 0.47209 0.16341 0.40543 0.48563 0.53027 -0.56585 1.246 -0.82792 0.68148 0.040351 -0.7497 -0.59958 -0.064052 0.22513 -0.80119 -0.22888 0.54718 0.19055 0.38463 -0.59387 0.13217 -0.81264 -0.86276 -0.72855 0.58386 0.674 -0.090315 -0.52665 -1.0041 0.70748 0.83751 -1.0496 0.5752 0.82169 0.3019 -0.88952 0.98672 -1.072 0.19315 -0.5668 -0.33657 -0.98631 -0.428 0.0073041 0.86081 1.5191 -1.3091 -0.78235 0.29254 -1.5915 -0.16957 -0.8828 -0.12964 0.5801 0.90571 -0.10556 0.46441 0.9519 -0.98417 0.47121 -0.57993 -0.041924 0.61076 0.29242 0.14269 0.23483 0.035252 -0.13997 0.17026 -0.26543 1.1762 0.57455 0.090184 0.80602 0.57199 0.94761 0.028791 0.25037 -0.04875 1.0555 0.64587 -0.056466 -0.58863 -0.70095 -0.63692 0.43593 0.25616 -0.43324 0.82148 0.1701 -0.36169 -0.5463 0.78432 -0.22447 -0.070783 -0.66438 -0.59978 -0.08888 -0.77987 -0.87152 -0.92672 -0.044013 0.66004 0.075684 -0.081866 0.14539 -0.88911 0.34702 0.22408 0.1319 -0.44894 -0.28288 0.31834 -1.1695 0.19813 -0.6284 0.3836 -0.5287 0.35609 0.41117 -0.00065395 0.81151 0.61119 -0.39135 1.0138 0.49621 -0.39962 -1.2369 0.53352 -0.34054 -0.14568 -1.2551 0.35264 -0.94741 -0.71076 0.16899 -0.68011 -0.41928 1.0407 0.5284 -1.1379 -0.24797 -0.38004 0.63042 -0.86959 0.87363 0.10946 -0.3715 -0.032078 -0.52828 -0.29118 -0.97963 -0.11654 -0.32917 -0.071673 -0.70527 -0.032 -0.40583 0.19984 0.42385 0.62596 -1.5044 0.064562 0.66262 -0.1624 -0.45745 -0.053759 -0.4264 -0.15626 -0.8392 -0.85386 -2.0095 -0.88727 0.063686 0.49826 1.1794 -0.62622 -0.27557 -0.28828 -0.26255 1.0322 -0.14897 -0.39287 0.51778 1.2418 0.087847 0.97506 0.2338 -0.30511 0.60456 0.43053 -0.76593 -0.10275 -0.71868 -1.3478 -0.59067 -0.63228 -0.1889 -0.77892 0.19553 0.43109 0.76156 0.60513 
. -0.52705 0.62202 -0.2733 -0.0058943 1.0008 -0.63884 -0.78425 0.076869 0.40831 -0.048665 1.0517 0.033931 1.6741 -1.2937 0.19584 -0.4118 1.339 -0.46783 -1.5494 -1.0132 -0.92964 1.3118 0.92374 -0.10252 0.15831 -0.44991 1.1473 0.072824 0.69337 0.19008 1.3738 -0.84379 -1.0632 -0.86857 -0.81831 1.0124 1.2541 -0.49544 -0.19472 1.4048 0.85468 0.82424 1.2236 -1.2409 -0.31474 -0.21309 -0.42848 -0.52017 0.58037 -0.65684 1.5641 -0.027377 -0.82901 -0.32401 0.48602 -0.88822 -1.182 -1.0145 -3.5141 0.56473 1.3016 -0.39247 0.86423 1.1621 0.39595 0.94185 -1.1151 -0.50117 -0.34338 -0.10073 1.6587 -1.1888 1.5434 -0.62381 -0.90043 0.56798 0.21459 -1.2362 -0.31413 -1.4869 -0.2619 0.11035 1.1145 -0.79104 -0.55042 -0.99466 0.25067 0.43263 -0.074376 -0.70019 -0.66453 0.83244 -0.38128 -0.16778 -1.0627 0.99734 0.93211 0.16891 0.10166 0.43593 0.33708 0.41395 -0.35758 1.1738 -0.75352 0.37811 -0.37895 -0.63799 -0.64313 -0.28318 -0.20344 -0.82712 0.12912 0.55758 0.085353 0.65953 -0.47335 0.56601 -0.70195 -0.86251 -0.77007 0.90118 1.1524 -0.17646 -0.78663 -1.1712 0.56489 0.74721 -1.0992 0.30703 0.88689 0.3156 -1.0381 1.3772 -1.3659 0.24386 -0.68983 -0.27048 -0.99923 -0.6438 -0.058547 0.72731 1.7387 -1.246 -0.77887 0.34946 -1.6261 -0.032199 -0.58287 0.0099792 0.48768 1.0449 -0.35022 0.41669 0.99927 -0.8149 0.60645 -0.62214 -0.34441 0.45532 0.36185 0.26145 1.0864 -0.472 -0.23991 0.34848 -0.055989 0.92378 0.53796 0.2794 0.67128 0.54034 1.0999 0.012687 0.16419 0.10835 0.97834 0.53031 0.21388 -0.29436 -0.6798 -0.55213 0.31739 0.30285 0.032556 0.92268 0.039257 -0.49745 -0.29725 0.46298 -0.33318 -0.22334 -1.0525 -0.76664 -0.35526 -0.80915 -0.62714 -0.69028 0.15846 0.24658 -0.014158 -0.79131 0.21569 -1.1005 0.098772 0.025709 0.3405 -0.20115 -0.22168 0.21749 -0.95785 0.12011 -0.65649 0.42616 -0.82284 0.29691 0.87703 0.28983 1.0909 0.76591 -0.33443 0.68359 0.55657 -0.45127 -1.2936 0.89373 -0.17359 -0.55177 -1.0298 -0.11605 -0.62554 -0.28553 0.26261 -0.65575 -0.10528 1.0928 0.674 -1.0022 -0.50123 -0.21546 0.9372 -1.0336 0.60282 -0.00087847 -0.19577 -0.076198 -0.2358 0.19142 -0.69986 0.66117 0.014457 -0.056519 -1.1495 0.38748 -0.55521 -0.12343 1.0083 0.59002 -1.5738 0.083569 0.56612 -0.79901 -0.52493 -0.24343 -0.44741 -0.55922 -1.3269 -1.2566 -2.1669 -1.0675 0.22241 0.55919 1.273 0.0013275 -0.38164 -0.17212 -0.12993 0.55496 -0.1203 -0.85488 0.87105 1.0362 0.21694 0.59134 -0.16506 0.069672 0.39558 0.46026 -0.92614 0.070812 -0.85829 -1.3168 -0.8363 -0.8632 0.40098 -1.0568 0.11155 0.21737 0.84365 0.10139 
月 -0.41312 1.0559 -0.93166 0.26045 0.91733 -0.38914 -0.7212 0.067659 0.41449 -0.10158 1.0566 0.050912 1.8747 -1.0209 0.2633 -0.56072 1.2256 -0.46146 -1.3098 -1.0226 -0.81913 1.348 1.0007 -0.18024 0.54756 -0.39756 1.2928 0.20139 0.60293 0.38552 0.9123 -0.95673 -1.1868 -0.53297 -1.0232 1.112 1.1896 -0.402 0.0016741 1.7086 0.91221 1.1465 1.3716 -1.3272 -0.14357 -0.4812 -0.93426 -0.56989 0.85165 -0.71885 1.3543 -0.31212 -0.55898 -0.54726 0.13791 -1.034 -1.1059 -1.3367 -3.4104 0.78161 1.4975 -0.11048 0.8141 1.5291 0.41948 0.99902 -1.3501 -0.80247 -0.5783 -0.45456 1.3612 -1.1621 1.5922 -0.47905 -0.76558 0.38473 -0.24927 -0.97411 -0.71361 -1.4836 -0.22144 0.035531 0.88255 -0.86305 -0.80287 -1.3225 0.26629 0.61799 -0.10116 -1.1693 -0.90783 1.0843 -0.1636 -0.15894 -0.60784 1.1288 0.8078 0.7246 0.23167 0.58672 0.60875 0.68917 -0.53393 0.98901 -0.54076 0.80906 -0.21618 -0.86036 -0.98668 -0.008994 0.11147 -0.94373 -0.15377 0.55011 0.21124 0.27844 -0.72607 0.14289 -1.0952 -0.85052 -0.76007 0.98732 0.72082 -0.13892 -0.83888 -1.1587 1.096 1.0287 -1.0879 0.57324 0.73887 0.26855 -0.72359 0.82006 -1.2698 0.36152 -0.65864 -0.31134 -0.68635 -0.97306 0.042989 0.89915 1.5313 -1.3697 -0.77177 0.34995 -1.7256 -0.069344 -0.69462 -0.14437 0.69198 1.1754 -0.17239 0.44379 1.1441 -0.90309 0.22438 -0.35406 -0.15785 0.91034 0.43378 0.48014 0.20096 -0.28751 0.06192 0.15671 -0.10201 1.246 0.52491 0.074079 0.85779 0.51699 0.92245 -0.18216 0.014888 -0.26388 0.80197 0.96966 0.19532 -0.63542 -0.78691 -0.46295 0.14276 0.076015 -0.54368 0.92798 -0.067085 -0.73143 -0.28604 0.59181 -0.13729 -0.39682 -0.57978 -0.62003 -0.48424 -0.42704 -0.99774 -0.96255 0.014804 0.65208 0.1336 -0.13849 0.15627 -0.8753 0.20963 0.22263 0.36857 -0.44635 -0.020641 0.31061 -1.0235 0.46922 -0.76617 0.19293 -0.55959 -0.11924 0.61185 -0.043017 1.1066 0.39018 -0.45484 0.67954 0.60918 -0.18171 -1.1254 0.85107 -0.29632 -0.49974 -0.96248 0.18277 -1.0387 -0.61897 0.1259 -0.74697 -0.071617 0.95868 0.4172 -0.95766 -0.67623 -0.019078 0.87367 -1.0814 0.89205 0.24034 0.069013 -0.21643 -0.40712 -0.3143 -0.8106 0.30629 -0.11027 -0.21941 -0.86874 0.14704 -0.54817 -0.11979 0.46667 0.69781 -1.8763 0.16553 0.34544 -0.38585 -0.43862 -0.18578 -0.27027 -0.33026 -0.89972 -0.90905 -2.3784 -1.0642 0.26434 0.49781 1.3657 -0.44476 0.038696 -0.078055 -0.13004 1.0864 -0.20841 -0.8787 0.19442 0.75511 0.3058 1.1198 0.077305 -0.12975 0.35779 0.68522 -1.0659 0.13683 -0.54857 -0.83681 -0.49656 -1.0098 -0.19082 -1.1472 -0.021349 0.37071 1.0789 -0.2043 
) -0.23406 0.91544 -0.72675 0.013654 1.059 -0.61199 -0.82322 0.1322 0.35423 -0.066609 1.0161 0.1143 1.7881 -0.89305 0.18136 -0.74325 1.2092 -0.45979 -1.3524 -0.87638 -0.97444 1.1032 0.86558 0.13714 0.54016 -0.49568 1.1106 0.11625 0.63629 0.63286 0.9984 -0.99479 -0.95779 -1.0214 -0.82247 1.0264 1.0219 -0.2515 0.015978 1.5009 0.90372 1.0459 1.255 -1.337 -0.30348 -0.38959 -0.71414 -0.3764 0.54058 -0.76832 1.0612 -0.40384 -0.3516 -0.50345 0.42274 -1.0838 -1.2326 -1.1437 -3.9191 0.50414 1.4427 0.03735 0.71204 1.2948 0.45242 0.98679 -1.017 -0.51542 -0.28877 -0.2085 1.6944 -1.0355 1.5673 -0.75042 -0.99057 0.56897 -0.17626 -0.92029 -0.35833 -1.4474 -0.2117 -0.19555 0.79082 -1.0312 -0.6848 -1.1889 0.41526 0.58487 0.10015 -1.2569 -0.8443 0.71525 -0.11233 0.099313 -0.70231 1.1922 0.94947 0.80341 0.066214 0.46119 0.40805 0.45758 -0.55776 0.90404 -0.61845 0.55168 -0.27819 -0.75077 -0.75891 -0.166 -0.061685 -1.0707 -0.064682 0.57878 0.32798 0.48628 -0.68397 0.24465 -0.59844 -0.74416 -0.66096 1.2057 0.90095 -0.3181 -0.67342 -1.3877 1.0845 0.91452 -1.2255 0.37252 0.84256 0.46463 -1.0041 0.9998 -1.1568 0.41016 -0.43939 -0.34474 -0.94298 -0.63409 0.21813 1.1622 1.5289 -1.3124 -0.74922 0.57044 -1.8131 -0.057506 -0.8011 -0.03523 0.61703 0.94622 -0.13253 0.41609 1.129 -0.90018 0.55607 -0.37221 -0.30105 0.62103 0.32222 0.21923 0.84978 0.15814 -0.22513 0.087882 -0.10745 1.0388 0.72443 0.31921 0.46147 0.50464 1.0113 -0.26571 0.18077 -0.12807 1.0093 0.78107 0.048209 -0.43743 -0.8469 -0.4311 0.23002 0.25186 -0.42112 0.96195 0.014168 -0.5475 -0.40583 0.66413 -0.29756 -0.35413 -0.79044 -0.48167 -0.18495 -0.64083 -0.88975 -0.82103 -0.085658 0.72354 -0.31608 -0.42133 -0.065055 -1.0374 0.37284 0.18413 0.43913 -0.74667 -0.38256 0.21067 -1.0333 0.37898 -0.54057 0.39232 -0.31223 0.044464 0.88057 0.20869 1.3032 0.75562 -0.64869 0.5957 0.37929 -0.37942 -1.2971 0.70251 -0.17586 -0.38069 -1.1141 0.30054 -0.87261 -0.34208 0.18215 -0.71081 0.018658 0.76109 0.80757 -1.1477 -0.48244 -0.30787 1.0663 -1.1697 0.96315 -0.20819 -0.31015 -0.13675 -0.49057 -0.21194 -0.65923 0.53231 -0.12525 -0.05399 -1.0678 0.49743 -0.72747 -0.1498 0.72503 0.44128 -1.6395 0.10353 0.63697 -0.21944 -0.77537 -0.16124 -0.50756 -0.22347 -0.9359 -0.69596 -2.4284 -1.028 0.02376 0.46872 1.2622 -0.23904 0.10948 0.10218 -0.13845 0.95629 -0.19239 -0.69237 0.52809 1.0519 0.23642 1.1196 -0.17766 -0.31318 0.4487 0.53551 -0.77217 0.032649 -0.39534 -1.3689 -0.89214 -0.64634 0.35751 -0.89985 0.13697 0.66344 1.2345 0.056981 
( -0.25649 0.87927 -0.74134 -0.029332 1.094 -0.57671 -0.81916 0.14142 0.38226 -0.079686 1.0258 0.15812 1.8002 -0.91819 0.20581 -0.73019 1.2036 -0.47185 -1.3474 -0.88314 -0.96418 1.1278 0.84773 0.14193 0.56233 -0.52202 1.1298 0.12829 0.6313 0.63602 1.0429 -0.97032 -0.93449 -1.0008 -0.81271 1.0277 1.0215 -0.24355 0.041718 1.484 0.89117 0.98717 1.2506 -1.252 -0.31315 -0.39438 -0.69927 -0.3487 0.55837 -0.77819 1.0806 -0.39232 -0.3625 -0.46903 0.44312 -1.0871 -1.1666 -1.1415 -3.8925 0.56809 1.4214 -0.017164 0.68435 1.2908 0.42552 0.98818 -1.0007 -0.51051 -0.2708 -0.16553 1.6628 -1.04 1.5681 -0.72955 -1.0134 0.56285 -0.21934 -0.89046 -0.35077 -1.4426 -0.24072 -0.14328 0.73657 -1.0748 -0.72547 -1.1246 0.3752 0.54982 0.071027 -1.2297 -0.85509 0.69846 -0.10809 0.074568 -0.68881 1.1576 0.96382 0.7852 0.071163 0.46295 0.38701 0.48321 -0.583 0.87932 -0.59506 0.56859 -0.28409 -0.73785 -0.76043 -0.15187 -0.075363 -1.0626 -0.065654 0.60345 0.35236 0.49529 -0.67734 0.22459 -0.58712 -0.73849 -0.60286 1.2435 0.87317 -0.30256 -0.61476 -1.3919 1.1072 0.9088 -1.1934 0.39545 0.91296 0.52631 -0.97909 0.9922 -1.1739 0.37699 -0.42825 -0.35838 -0.92331 -0.63684 0.25072 1.1503 1.5101 -1.2653 -0.72831 0.60345 -1.7655 -0.072818 -0.80263 -0.011139 0.62355 0.94591 -0.10466 0.38849 1.1034 -0.90199 0.5675 -0.33428 -0.24617 0.62744 0.31657 0.20132 0.85331 0.18248 -0.19736 0.1163 -0.18947 1.0082 0.72415 0.31997 0.44287 0.50878 0.9861 -0.27854 0.17998 -0.13596 1.0376 0.78964 0.0418 -0.40155 -0.85041 -0.47929 0.2307 0.23989 -0.41529 0.93544 0.053221 -0.56464 -0.41856 0.68046 -0.30346 -0.33615 -0.80894 -0.48342 -0.17239 -0.67296 -0.9095 -0.77632 -0.043377 0.68842 -0.35596 -0.46293 -0.11046 -1.0556 0.39937 0.12563 0.41283 -0.72138 -0.37499 0.22593 -1.0424 0.36833 -0.52519 0.39065 -0.34324 0.053868 0.87915 0.16701 1.2861 0.77275 -0.66775 0.60662 0.37887 -0.4175 -1.2807 0.6988 -0.16887 -0.38337 -1.1286 0.30152 -0.85298 -0.33539 0.17197 -0.67538 -0.0086492 0.75313 0.78899 -1.1095 -0.4757 -0.28371 1.0592 -1.1156 0.94998 -0.21317 -0.29863 -0.15303 -0.47679 -0.16528 -0.62906 0.561 -0.10808 -0.030657 -1.0466 0.4877 -0.70421 -0.090925 0.69895 0.43229 -1.6627 0.064671 0.6133 -0.23254 -0.79693 -0.14866 -0.51304 -0.1979 -0.91803 -0.68052 -2.4207 -1.0193 0.030648 0.47407 1.252 -0.26386 0.10798 0.091701 -0.1069 0.96836 -0.18433 -0.67405 0.53626 1.0699 0.26103 1.1484 -0.18895 -0.27707 0.44519 0.53324 -0.70201 0.071884 -0.38584 -1.3019 -0.91263 -0.67761 0.36976 -0.92242 0.15839 0.68538 1.1787 0.033055 
日 -0.39558 0.95503 -0.99593 0.25263 0.92338 -0.31303 -0.71507 0.0046221 0.45598 -0.15785 1.0788 -0.0050594 1.8782 -0.94101 0.2521 -0.56206 1.2488 -0.46826 -1.4392 -1.0668 -0.84237 1.2916 0.9868 -0.25924 0.53137 -0.44273 1.2302 0.2362 0.52618 0.43329 0.88067 -0.91343 -1.1878 -0.45842 -1.0332 1.0958 1.1774 -0.3968 -0.015141 1.7446 0.91357 1.0966 1.3708 -1.3339 -0.14345 -0.45155 -0.90668 -0.63462 0.85672 -0.68873 1.3046 -0.33363 -0.57473 -0.53716 0.24376 -1.0907 -1.124 -1.3494 -3.4886 0.77111 1.5281 -0.13417 0.91258 1.5068 0.43771 0.95167 -1.3024 -0.78149 -0.63031 -0.4439 1.4286 -1.2483 1.5801 -0.49704 -0.74619 0.4056 -0.18751 -0.99349 -0.73193 -1.4894 -0.22643 -0.018893 0.90395 -0.91346 -0.82004 -1.2695 0.26186 0.60331 -0.12819 -1.202 -0.93493 1.1205 -0.18515 -0.076957 -0.66141 1.1357 0.82174 0.76508 0.3035 0.56281 0.64095 0.70317 -0.54761 0.93569 -0.47049 0.86068 -0.22677 -0.90476 -1.0167 0.0041068 0.10977 -0.95731 -0.22464 0.50066 0.22474 0.27209 -0.71804 0.14739 -1.0946 -0.80624 -0.77959 1.007 0.66033 -0.1713 -0.74052 -1.1704 1.1278 0.98741 -1.047 0.62944 0.74317 0.28186 -0.72649 0.80311 -1.3054 0.4434 -0.65772 -0.28015 -0.72407 -0.98326 0.030861 0.94487 1.554 -1.3461 -0.76696 0.36436 -1.7109 -0.096826 -0.71434 -0.16915 0.69771 1.2098 -0.14588 0.3936 1.1783 -0.93698 0.12959 -0.32899 -0.086385 0.85886 0.4597 0.47331 0.26168 -0.22886 0.041229 9.5912e-05 -0.19724 1.1797 0.56826 0.11173 0.85595 0.56228 0.92251 -0.15403 -0.0036185 -0.26602 0.80645 0.89434 0.22289 -0.59892 -0.71644 -0.38348 0.19836 0.086522 -0.51485 0.88909 -0.044831 -0.66659 -0.30675 0.55319 -0.19992 -0.35186 -0.57028 -0.6189 -0.44314 -0.30181 -1.0404 -0.89512 -0.0030422 0.62449 0.11561 -0.16312 0.18423 -0.83159 0.1819 0.19417 0.37081 -0.41006 0.0034223 0.3196 -1.0307 0.45602 -0.76305 0.20961 -0.57976 -0.13511 0.60783 -0.026825 1.1075 0.42072 -0.549 0.58706 0.65478 -0.16078 -1.1886 0.81063 -0.33324 -0.50371 -0.99208 0.26344 -0.96741 -0.58113 0.053831 -0.73001 -0.033024 0.98252 0.47298 -0.9732 -0.65761 -0.014693 0.85547 -1.0679 0.84411 0.31188 0.083121 -0.34664 -0.44809 -0.31399 -0.80919 0.38191 -0.059579 -0.22444 -0.8725 0.14873 -0.56196 -0.14631 0.42866 0.73436 -1.9273 0.22958 0.33759 -0.40962 -0.39342 -0.26482 -0.2591 -0.37589 -0.89805 -0.82814 -2.4279 -0.97956 0.37866 0.45493 1.3759 -0.41444 0.032767 0.045707 -0.17012 1.0802 -0.15715 -0.83859 0.13163 0.83924 0.43349 1.1072 0.0062953 -0.15595 0.38841 0.57226 -1.0951 0.19145 -0.52939 -0.77618 -0.56258 -1.0324 -0.055158 -1.1508 -0.07346 0.40849 1.1054 -0.23002 
在 -0.15918 1.2159 -0.73799 0.3806 0.91077 -0.41045 -0.69445 0.13643 0.22765 -0.039076 0.82397 0.1305 1.431 -1.0146 0.086494 -0.7149 1.0435 -0.46476 -1.3825 -0.73467 -1.0323 1.2527 1.2419 -0.12709 0.61279 -0.47068 1.1636 0.16805 0.79612 0.42418 0.87374 -1.0464 -0.98604 -0.80782 -0.84122 1.1189 1.2188 -0.53442 0.24414 1.6401 0.73194 1.1589 1.2503 -1.3603 -0.38028 -0.40213 -0.69984 -0.46319 0.46216 -0.87872 1.3142 -0.39291 -0.55891 -0.59938 0.047407 -1.1808 -1.1653 -1.4012 -3.4859 0.48453 1.1951 -0.13066 0.95122 1.3095 0.50122 1.1879 -1.223 -0.70531 -0.74234 -0.3682 1.3855 -1.0033 1.2914 -0.66176 -0.99434 0.27136 -0.031891 -0.81178 -0.68591 -1.3292 -0.31665 0.16137 0.91823 -0.85974 -0.90355 -0.90264 0.14506 0.55997 0.23031 -1.1011 -0.88777 0.90253 -0.18295 -0.11562 -0.98502 1.2253 0.86332 0.61479 -0.1403 0.2875 0.55281 0.80845 -0.47746 1.0026 -0.66564 0.73705 -0.031039 -0.95006 -0.77082 0.2051 0.2524 -0.80462 -0.10558 0.48771 0.26854 0.36595 -0.46823 0.10882 -0.58104 -1.0367 -0.75687 0.90363 0.89584 0.047555 -0.75073 -0.96238 0.92831 0.81363 -1.1808 0.30977 0.84255 0.15088 -0.98186 1.1367 -1.2036 0.40841 -0.41722 -0.36459 -0.86951 -0.44854 0.029374 0.77233 1.3621 -1.1801 -0.79033 0.37306 -1.6649 -0.055562 -0.82299 -0.30876 0.55896 0.91441 -0.17842 0.37015 1.0029 -0.77783 0.44782 -0.50792 0.077635 0.67496 0.57382 0.5421 0.27084 0.02853 -0.13171 0.30773 -0.21536 1.0378 0.49756 0.26394 0.63352 0.6446 1.0019 -0.24831 0.15022 0.10302 0.87417 0.90366 -0.069783 -0.55758 -1.0025 -0.57057 0.17891 -0.055237 -0.50453 0.85573 -0.024563 -0.82553 -0.50699 0.8579 -0.22098 -0.2055 -0.59211 -0.67777 -0.22684 -0.72459 -0.84776 -0.89525 0.047106 0.54342 -0.015967 -0.38577 -0.18313 -0.60137 -0.010206 0.1193 0.26829 -0.41167 -0.065284 0.19298 -0.93819 0.26106 -0.73833 0.31381 -0.84597 0.15859 0.30808 -0.23114 0.8945 0.87714 -0.55457 0.61979 0.49298 -0.091919 -1.0579 0.69451 -0.23713 -0.18948 -1.1286 -0.01474 -0.76402 -0.54833 0.16223 -0.5483 -0.06639 1.1857 0.33794 -1.2227 -0.30539 -0.34001 0.70558 -1.0311 0.7055 0.02807 -0.27737 -0.1281 -0.29899 -0.18723 -0.93307 0.14525 -0.45002 -0.15306 -0.63136 -0.15463 -0.49089 -0.16308 0.56917 0.8546 -1.4466 0.010918 0.64993 -0.14941 -0.21891 0.014491 -0.29129 -0.23566 -0.99418 -1.1484 -1.8979 -1.1494 -0.13367 0.53063 1.2433 -0.55474 -0.08415 -0.2786 -0.0087694 1.0108 -0.15984 -0.6717 0.63399 1.2886 0.17878 1.0071 0.12924 -0.15114 0.44477 0.47354 -0.95803 -0.045724 -0.69811 -1.1521 -0.59027 -0.83053 -0.078282 -0.91345 0.40483 0.17425 0.97141 0.30593 
： -0.20168 0.99655 -0.66155 0.018642 0.93347 -0.319 -0.63481 0.087682 0.61728 -0.2807 1.0678 0.39391 1.7334 -0.80385 0.19017 -0.71139 1.05 -0.44936 -1.7102 -0.86083 -1.0955 1.4554 0.94953 0.014762 0.72339 -0.51821 1.1014 0.45871 0.77583 0.20885 0.9812 -0.92914 -1.0883 -0.83278 -0.8764 1.2653 1.3076 -0.4493 -0.025875 1.5311 0.88735 1.0298 1.2255 -1.4992 -0.32731 -0.32113 -0.59699 -0.57852 0.68147 -0.70225 1.4354 -0.17652 -0.60191 -0.54681 -0.0080915 -1.2601 -1.213 -1.4198 -3.8317 0.49874 1.0693 -0.022499 1.026 1.2336 0.55389 0.86111 -1.1824 -0.85851 -0.48741 -0.1309 1.5833 -0.99121 1.4459 -0.44441 -0.84398 0.55509 -0.053728 -1.2283 -0.40742 -1.4483 -0.22969 -0.22726 1.0333 -1.012 -0.68842 -1.0006 0.18317 0.74321 0.018223 -1.0572 -0.64927 0.64313 0.030685 -0.075422 -0.88703 1.4084 0.73267 0.58289 -0.010016 0.40612 0.70324 0.59886 -0.66022 1.2091 -0.54157 0.80402 0.081868 -0.95015 -0.94632 -0.17357 -0.062884 -0.88738 -0.12694 0.68326 0.11727 0.43441 -0.83783 0.17879 -0.75182 -0.77347 -0.80819 1.0236 0.81055 0.029088 -0.87127 -1.111 0.87217 0.95208 -1.0172 0.3585 0.7903 0.12514 -0.94521 1.0019 -1.1006 0.44535 -0.4564 -0.38273 -0.90002 -0.48664 0.24404 0.89449 1.6263 -1.2603 -0.9237 0.46386 -1.6648 -0.25379 -0.67252 0.0083575 0.65118 1.2606 -0.25315 0.37861 1.2108 -0.60649 0.50657 -0.36651 -0.095896 0.97274 0.52351 0.44476 0.47667 -0.013454 0.02383 0.32047 -0.32728 1.0243 0.78838 0.32284 0.5643 0.57354 1.3219 -0.25813 0.25854 0.030186 0.97242 0.7706 -0.026566 -0.42038 -0.82683 -0.6503 0.43954 0.1092 -0.42943 1.0662 0.072299 -0.67205 -0.27958 0.81116 -0.14863 -0.24348 -0.62746 -0.65144 -0.11441 -0.69153 -1.1602 -0.73074 -0.25421 0.36682 0.00012425 -0.63301 0.14613 -0.79312 0.18059 0.10257 0.0037144 -0.46433 -0.12713 0.44632 -0.80223 0.28853 -0.59698 0.29806 -0.52679 0.13305 0.82595 0.2993 1.1911 0.56263 -0.48992 0.86105 0.45254 -0.38964 -1.0337 0.8605 -0.26019 -0.08946 -1.1809 0.18398 -0.95057 -0.51189 0.31114 -0.55199 -0.014247 1.031 0.73251 -1.2542 -0.44981 -0.33484 0.78585 -0.84944 0.8162 -0.042395 -0.42903 0.083871 -0.43478 -0.078805 -0.95937 -0.027849 -0.25684 0.18893 -0.91621 0.20299 -0.39569 0.21806 0.88577 0.37997 -1.4937 -0.042353 0.51928 -0.56529 -0.5528 0.013537 -0.26066 -0.20059 -0.85847 -0.82177 -1.9704 -0.86422 0.16384 0.51126 0.97222 -0.75252 0.056083 -0.10101 0.070316 1.1077 -0.10391 -0.50454 0.49823 1.1382 0.31228 1.257 0.071551 -0.59548 0.23354 0.8399 -0.71168 0.030706 -1.0414 -1.0363 -1.0429 -0.74187 0.22281 -0.79794 0.26382 0.54656 0.73654 0.10016 
是 -0.2947 0.96263 -0.64208 0.26904 0.81669 -0.4197 -0.76458 0.22026 0.39823 -0.044368 0.90519 0.058803 1.5186 -1.061 0.037516 -0.85236 0.71213 -0.40752 -1.483 -0.60035 -1.1404 1.2292 1.2193 -0.013205 0.75028 -0.64071 1.056 0.29746 0.65827 0.29021 1.0365 -0.88943 -0.84054 -0.91078 -0.8118 1.2037 1.1838 -0.68467 0.13043 1.4297 0.84812 1.2296 1.2645 -1.3474 -0.46647 -0.50325 -0.78006 -0.29556 0.46694 -0.86471 1.1513 -0.083127 -0.56439 -0.54749 0.24472 -1.1987 -1.1071 -1.494 -3.5805 0.35054 1.1822 -0.14338 0.94363 1.4257 0.57719 1.1155 -1.1568 -0.71422 -0.59231 -0.15217 1.5964 -0.85672 1.3706 -0.75333 -0.93702 0.34216 -0.018062 -0.94624 -0.46339 -1.2441 -0.24588 -0.014186 0.90451 -0.90349 -0.8413 -0.88856 0.19713 0.70343 0.066668 -1.2076 -0.91207 0.88654 -0.15411 -0.03139 -0.8811 1.3894 0.81058 0.6189 0.13928 0.15015 0.62773 0.52557 -0.60964 1.1134 -0.64656 0.43897 -0.1056 -0.81528 -0.79294 0.011758 0.2293 -0.83421 -0.12414 0.60844 0.27743 0.44911 -0.65487 0.12584 -0.6768 -1.165 -0.76231 1.0157 0.70824 0.072998 -0.78838 -0.78291 0.8373 0.85906 -1.1207 0.39082 0.71783 0.22138 -0.97172 1.2464 -1.2574 0.34886 -0.42288 -0.46324 -0.96657 -0.65494 0.036606 0.87073 1.4635 -1.1964 -0.90294 0.28447 -1.4719 -0.19801 -0.75471 -0.44003 0.50558 1.0695 -0.20375 0.26232 1.0458 -0.78943 0.2911 -0.42868 0.00051662 0.7179 0.28826 0.36638 0.35106 -0.26241 0.058454 0.24675 -0.35126 0.82303 0.70827 0.51579 0.6362 0.63905 1.0002 -0.27073 0.12566 0.073826 0.70752 0.88663 0.018877 -0.6446 -0.72626 -0.43245 0.29192 -0.024789 -0.55305 0.83379 0.010214 -0.78934 -0.47006 0.84025 -0.3254 -0.053938 -0.64136 -0.44979 -0.020078 -0.39118 -1.1196 -0.76324 -0.007382 0.55478 0.048309 -0.51268 -0.15172 -0.58643 0.12819 0.23156 0.13604 -0.51435 -0.21252 0.29178 -0.9611 0.23519 -0.53226 0.45818 -0.65265 0.023695 0.47478 -0.11026 1.0374 0.68898 -0.65905 0.83337 0.38156 -0.30748 -1.125 0.85038 -0.219 -0.15465 -1.0664 0.18646 -0.80464 -0.23705 0.51165 -0.85804 -0.11827 1.0432 0.55366 -1.2645 -0.076407 -0.23647 0.95911 -1.0385 0.69627 -0.031721 -0.37161 0.0084316 -0.6177 -0.35963 -0.82659 -0.062814 -0.49534 0.10803 -0.83316 0.092093 -0.46147 -0.060965 0.55664 0.65784 -1.5682 -0.038237 0.64389 -0.35463 -0.51613 -0.31236 -0.23338 -0.063333 -0.81927 -0.89823 -2.0185 -1.4186 -0.10503 0.42784 1.1059 -0.77548 -0.17601 -0.19003 0.15087 1.0027 -0.10793 -0.7091 0.64077 1.2628 0.16852 1.0921 0.030727 -0.58835 0.3965 0.45892 -0.82997 0.084672 -0.73598 -0.99018 -0.83517 -0.69301 0.12126 -0.92381 0.65063 0.37096 0.86223 0.44922 
, -0.31955 0.8298 -0.61923 -0.090454 0.95544 -0.64087 -0.82098 0.10073 0.4565 -0.057164 1.0146 0.36933 1.5041 -1.0173 0.087814 -0.67088 1.1159 -0.11431 -1.508 -0.79089 -0.86986 1.0847 1.0039 0.016663 0.66289 -0.66762 0.89033 0.10659 0.56775 0.33457 1.1874 -0.96988 -0.74005 -0.84241 -0.61469 1.3568 0.69741 -0.41619 0.015002 1.3941 0.95914 0.83193 1.2331 -1.2385 -0.25975 -0.40155 -0.69071 -0.45333 0.6187 -0.74272 1.4175 -0.37057 -0.60336 -0.4732 0.3193 -0.85738 -1.3061 -1.1811 -3.8616 0.57934 1.157 -0.3873 0.87692 1.2036 0.361 0.85957 -0.9822 -0.58285 -0.40173 -0.005746 1.72 -1.0715 1.7085 -0.68687 -1.0124 0.25656 -0.16137 -0.97832 -0.41165 -1.3574 -0.52169 0.0090441 1.179 -0.8097 -0.8013 -1.1219 0.31093 0.41642 0.14043 -1.051 -0.64568 0.8903 -0.17836 -0.20469 -1.1313 1.097 0.99259 0.30204 -0.16437 0.54823 0.20828 0.30683 -0.71982 1.1272 -0.69298 0.17994 -0.36151 -0.53101 -0.81067 -0.21739 -0.055113 -0.73736 0.52844 0.28944 0.19673 0.5795 -0.70694 0.34632 -0.60317 -1.1426 -0.80939 0.89328 0.90881 -0.1954 -0.92058 -1.3377 0.75657 0.62118 -1.2172 0.5798 0.89101 0.28141 -1.3897 1.4016 -1.1583 0.19172 -0.5891 -0.32228 -0.83126 -0.85777 -0.01695 0.64117 1.4252 -1.2038 -0.75793 0.49483 -1.5549 0.0019866 -0.55992 -0.14058 0.71608 0.87326 -0.27011 0.58072 1.1842 -0.7028 0.5946 -0.32803 -0.30039 0.32979 0.30457 0.28917 0.88714 -0.19039 -0.064741 0.17042 -0.2698 0.98854 0.64648 0.29653 0.54577 0.35443 1.0424 0.1306 0.55364 0.098223 1.0081 0.80697 -0.15063 -0.26157 -0.71498 -0.39616 0.16287 0.14868 -0.50016 1.0943 0.019835 -0.73737 -0.40473 0.63346 -0.23902 -0.44359 -0.75131 -0.58312 -0.19592 -0.88423 -0.83239 -0.72409 0.037072 0.62237 -0.28567 -0.52508 0.17422 -1.1634 0.4011 0.089578 0.21175 -0.24692 -0.31612 0.11008 -0.91306 0.22274 -0.70128 0.56527 -0.53202 0.12794 0.70897 0.12528 1.2108 0.84955 -0.53689 0.73195 0.73781 -0.62142 -1.5443 0.8224 -0.1832 -0.44482 -1.2229 -0.19785 -0.83138 -0.45697 0.34726 -0.5497 0.17254 1.0132 0.8779 -1.0008 0.050877 -0.67547 1.1985 -0.86761 1.0592 -0.46498 -0.056597 0.0099139 -0.23771 0.045192 -0.48661 0.52461 -0.035453 0.036499 -0.6978 0.25137 -0.56294 -0.37139 0.69967 0.75042 -1.3694 -0.0091215 0.66207 -0.61074 -0.13024 -0.12459 -0.24627 -0.29389 -1.271 -0.84824 -2.0199 -1.4308 0.33243 0.46384 1.3413 -0.25725 0.011257 -0.3969 -0.23233 0.69703 -0.38648 -0.70915 0.8579 1.0816 0.34786 0.50269 -0.2006 -0.24912 0.64598 0.2992 -0.78367 0.016296 -0.80404 -1.3802 -0.69682 -1.0549 0.41824 -1.3724 -0.031337 0.5641 1.4381 0.29158 
name -0.11162 -0.11212 -0.16549 -0.49833 0.47112 0.28155 -0.088375 0.45212 0.18633 -0.60904 0.6694 0.23965 1.2503 -1.0184 -0.27277 0.39528 0.44401 0.56557 -0.54335 -0.6278 -0.095732 0.14737 0.49174 0.0030845 0.16494 -0.84605 -0.033936 0.11528 -0.038581 0.19442 0.42721 -0.3704 -0.13601 -0.95338 -0.45969 0.66409 0.44173 -0.39626 0.3002 0.92716 0.61245 0.30569 0.15148 0.29949 -0.53787 -0.13473 -0.39465 -0.062454 -0.051862 -0.42932 0.57849 -0.24265 -0.27865 0.15642 0.5313 -0.26888 -0.43271 -0.50879 -1.1463 0.83762 0.321 -0.64424 0.25943 0.39041 -0.11719 0.75419 -0.26442 -0.57268 -0.44279 0.15875 0.37677 0.32625 0.91489 -0.75892 0.13207 0.90658 0.045407 -0.63009 0.13686 -0.26549 -0.060314 0.16329 -0.11674 -0.10897 -0.59257 -0.60919 0.32457 0.27084 0.36349 -0.27588 -0.42274 0.21712 0.30989 0.23088 0.15952 1.2337 0.11707 0.02192 0.22704 -0.11107 -0.12967 -0.14967 -0.16991 0.14353 -0.51529 0.010117 -0.066089 -0.63672 -0.62401 -0.12429 -0.017859 0.084315 0.30372 0.2735 0.067171 0.3072 -0.28957 -0.4399 -0.25003 -0.51511 -0.27498 0.13097 -0.034943 0.42178 0.069002 -0.21266 0.25107 0.15154 -0.19155 0.042422 0.91262 0.44606 -0.39199 0.36013 -0.80591 -0.094517 0.0096951 0.50216 -0.20156 0.61187 0.19176 0.42202 0.18426 -0.57755 -0.44759 0.50937 -0.65667 0.47039 -0.2155 0.88138 0.61413 -0.4233 -0.55395 0.15951 0.84902 -0.5214 -0.40976 -0.24413 -0.15123 -0.17653 0.55724 0.12078 0.042231 0.32153 -0.70108 0.42062 -0.36675 0.62989 -0.081241 0.31449 0.4916 0.39818 0.74137 0.03068 -0.17939 -0.33768 0.45645 0.52864 0.27952 0.023118 -0.75344 -0.50821 0.14009 0.66169 0.33045 -0.14842 0.5193 0.57337 -0.50267 0.67134 -0.10814 -0.26483 -0.64382 0.092518 0.067238 -0.040719 -0.44221 -0.58233 -0.54986 0.46198 0.23795 0.0076468 0.805 -0.0037072 -0.0025925 0.20032 0.39086 -0.84329 -0.40803 0.17471 -0.26078 -0.45565 -0.97243 -0.35842 -0.58671 0.17201 -0.018214 0.16573 0.10497 0.3588 -0.30611 0.57826 0.68176 -0.1475 -0.87141 0.56072 -0.21739 -0.41032 -1.1525 0.45602 -0.66666 -0.09453 0.025402 -0.20332 -0.43557 0.46285 0.058498 -0.26894 0.37338 -0.085553 0.30866 0.30576 0.19195 -0.78301 -0.3958 0.071801 -0.1994 -0.039472 -0.18442 0.57719 0.1587 0.18312 -0.52191 0.28104 0.13442 0.49609 -0.15373 0.048247 -0.48785 0.32524 0.08898 -0.17363 -0.52782 -0.23218 -0.58169 -0.62581 -0.49506 -0.53031 -1.3353 -0.25657 -0.32633 0.22215 1.1834 -0.31811 0.26556 -0.31107 -0.59975 -0.038513 0.96589 -0.048607 0.097052 0.68606 -0.29766 0.051723 0.30491 0.49411 -0.21841 -0.083601 -0.84882 0.43181 -0.93829 -1.2266 0.43251 -0.20433 0.47475 -0.74027 -0.15732 0.20536 0.12655 0.39408 
wikidata 0.058406 -0.23995 -0.041378 -0.61205 0.29331 0.57306 -0.10391 0.46365 0.21042 -0.53596 0.52906 0.26828 0.8596 -0.85444 -0.27159 0.51657 0.35809 0.61527 -0.47236 -0.58847 0.015777 -0.062123 0.23675 0.022082 0.16343 -0.69817 -0.36283 -0.0096287 -0.2034 0.19041 0.13683 -0.25123 -0.12886 -1.0347 -0.2825 0.54726 0.080599 -0.44039 0.31842 0.51459 0.5664 0.05299 -0.060711 0.45293 -0.60053 -0.27147 -0.34224 0.068059 -0.19075 -0.28761 0.53753 -0.22206 0.024515 0.25609 0.55637 -0.087871 -0.26965 -0.41289 -0.20925 0.80093 0.14894 -0.66131 0.17917 0.20521 -0.14869 0.62129 -0.043786 -0.59733 -0.52626 0.18462 0.1757 0.29004 0.84153 -0.52131 0.16739 0.76417 -0.15463 -0.46985 0.24306 0.012608 -0.084539 -0.016637 -0.26313 0.091973 -0.36496 -0.42703 0.40052 0.34329 0.53128 -0.1074 -0.31134 0.084352 0.37109 0.43458 0.34008 1.1241 -0.027338 -0.078933 0.071709 -0.15378 -0.17788 -0.19667 -0.14832 -0.031762 -0.4696 0.04243 -0.081865 -0.41396 -0.62693 -0.08152 -0.039652 0.12291 0.53286 0.064883 4.3171e-05 0.12406 -0.21117 -0.47565 -0.1975 -0.38942 -0.32579 0.034418 -0.25068 0.42467 -0.016844 -0.074784 0.090609 0.088891 0.041334 0.066266 0.75852 0.28509 -0.3209 0.046912 -0.5919 -0.098936 -0.099244 0.40707 -0.094396 0.6443 0.080948 0.38468 -0.12328 -0.41616 -0.39432 0.60399 -0.35303 0.37212 -0.20747 0.90559 0.70286 -0.74564 -0.54463 0.12911 0.87916 -0.44199 -0.60976 -0.28407 -0.093436 -0.28681 0.34454 0.14308 -0.14446 0.40184 -0.60771 0.4448 -0.39288 0.3857 -0.2233 0.45527 0.47677 0.42398 0.6211 0.049854 -0.096764 -0.23937 0.34579 0.4683 0.066313 0.076176 -0.63727 -0.34963 -0.02646 0.78931 0.34121 -0.35315 0.68286 0.64542 -0.43907 0.80653 0.084377 -0.15467 -0.3086 0.1634 -0.017129 0.021606 -0.44517 -0.47806 -0.75166 0.41957 0.40391 0.087785 0.70447 0.0075937 -0.082426 0.099568 0.53043 -0.89171 -0.42164 0.064797 -0.058621 -0.52405 -0.89846 -0.48042 -0.47983 0.06368 -0.063123 0.08751 -0.10939 0.40275 -0.22197 0.39672 0.53577 -0.137 -0.71931 0.39967 0.026138 -0.45503 -0.92833 0.48161 -0.64142 -0.18942 -0.085461 -0.20864 -0.30016 0.29212 0.078058 -0.014455 0.43501 -0.096942 0.28355 0.60021 0.26084 -0.86455 -0.29799 0.05202 -0.042056 0.019052 0.13893 0.67988 0.2777 0.099467 -0.39419 0.3566 0.015854 0.47596 -0.15688 -0.15322 -0.35344 0.22984 0.11065 -0.14524 -0.41741 -0.49108 -0.57184 -0.48907 -0.55541 -0.28028 -0.90627 -0.32141 -0.35534 0.11194 1.1277 -0.31763 0.54088 -0.19223 -0.66257 -0.30037 1.2005 0.31822 0.16338 0.62127 -0.24372 -0.26907 0.2341 0.48007 -0.28292 -0.076967 -0.83152 0.53212 -1.031 -1.0249 0.74828 -0.051793 0.50347 -0.62632 -0.19501 0.16949 0.02795 0.49793 
/ -0.26507 0.80549 -0.72152 -0.069754 1.1853 -0.31782 -0.78307 0.12862 0.36166 -0.045456 1.2925 0.066716 1.9031 -1.1195 0.26951 -0.71903 1.173 -0.28385 -1.4479 -0.8801 -0.85238 1.4588 0.93699 0.26239 0.58981 -0.41235 1.0694 0.026568 0.79135 0.30008 1.0221 -0.74412 -1.2155 -0.88658 -0.8193 1.0279 1.1852 -0.49272 0.12175 1.7066 1.0261 0.86128 1.4755 -1.131 -0.37475 -0.18979 -0.92762 -0.64028 0.56337 -0.85011 1.4654 -0.42345 -0.70971 -0.23324 0.26414 -0.53168 -1.1801 -1.0719 -3.5538 0.52377 1.2509 -0.19505 0.97585 1.2857 0.41152 0.78117 -0.96594 -0.50472 -0.39667 -0.25075 1.6735 -0.98751 1.5439 -0.72271 -1.1125 0.35589 0.1035 -1.379 -0.68076 -1.6386 -0.1897 -0.26779 1.1849 -0.75771 -0.80558 -0.90162 0.10826 0.53442 -0.14345 -1.4035 -0.60916 0.87521 -0.43816 -0.3335 -0.98922 1.1004 0.83883 0.39387 0.46763 -0.11249 0.13335 0.26705 -0.51956 1.2768 -0.67028 0.39587 -0.23184 -0.77591 -0.75538 -0.40438 0.18757 -0.83863 0.00093297 0.65549 0.1643 0.64472 -0.48776 0.3589 -0.98223 -0.89544 -0.88879 0.89029 1.1218 0.13192 -0.7827 -1.079 0.94435 0.43171 -0.89453 0.023603 0.61741 0.44679 -0.65739 1.1726 -1.2418 0.57185 -0.69002 -0.31739 -0.96125 -0.58378 0.1389 0.71664 1.7715 -1.3084 -0.89106 0.48592 -1.7311 0.1104 -0.8075 0.027684 0.52872 1.0279 -0.35632 0.59315 0.8287 -0.621 0.56226 -0.70167 -0.34124 1.0238 0.27911 0.090127 0.62837 -0.098371 -0.18529 0.36666 -0.46485 0.95476 0.76146 0.14433 0.8159 1.1166 1.3447 0.077358 0.07166 -0.02376 1.0868 0.58738 -0.1379 -0.098236 -0.80511 -0.44208 0.24473 0.61566 -0.27504 1.2068 -0.15811 -0.21833 -0.43598 0.79744 0.043998 -0.63105 -1.3679 -0.57252 -0.080324 -0.72042 -0.59293 -0.59573 0.058442 0.26714 0.011897 -0.62541 0.38982 -0.99153 0.33478 -0.023119 0.67671 -0.27032 -0.12819 0.22445 -1.0065 0.53211 -0.51777 0.45224 -0.42968 0.2081 0.79834 0.5859 1.0129 0.62089 -0.36155 0.9714 0.16022 -0.72303 -1.2106 0.89379 0.0042071 -0.040946 -1.4101 0.041405 -0.90808 -0.83709 0.10896 -0.641 -0.098664 1.4497 0.42776 -1.0677 -0.46931 -0.28505 0.60345 -0.83366 0.69824 -0.014825 -0.43614 0.079276 -0.2988 -0.11714 -1.0045 0.25616 -0.047102 0.069366 -1.0742 0.19567 -0.27183 0.061807 0.97265 0.5528 -1.7561 0.18182 0.74634 -1.0133 -0.86491 0.073748 -0.50769 -0.50062 -1.5026 -1.326 -2.1602 -1.1682 0.094953 0.42824 1.3821 -0.42613 0.016131 -0.15172 -0.18356 0.41794 -0.07435 -0.45186 1.0933 1.4013 0.30294 0.67554 -0.37613 0.35098 0.59209 0.23866 -0.99328 0.28887 -1.0677 -1.3349 -1.0628 -1.0446 0.38575 -1.0624 0.014282 0.18843 0.98189 -0.011161 
" 0.0063825 0.94953 -0.55561 0.35732 0.88096 -0.12772 -0.69504 0.16865 0.27167 -0.14928 1.1055 0.033369 1.4709 -0.95156 0.043655 -0.855 0.90022 -0.51955 -1.3574 -0.803 -0.88426 1.3048 1.2227 -0.072813 0.85552 -0.51065 1.1968 0.19365 0.77331 0.27498 1.1609 -0.90925 -0.85239 -0.73094 -1.0661 1.1841 1.1826 -0.62143 0.25952 1.6185 0.97108 1.1047 1.2881 -1.4229 -0.3572 -0.4986 -0.90901 -0.3017 0.47313 -1.1931 1.4055 -0.28528 -0.33678 -0.71488 0.21644 -0.98623 -1.3367 -1.4939 -3.8158 0.57102 0.95995 -0.081502 0.99758 1.3868 0.44758 1.0314 -0.90475 -0.60052 -0.49495 -0.14541 1.6888 -0.75443 1.4775 -0.57772 -0.9096 0.40224 -0.076865 -1.0349 -0.63017 -1.3774 -0.24777 0.21555 1.0854 -0.75624 -0.99568 -0.84685 0.19138 0.84421 -0.097656 -1.1985 -0.74851 0.61677 -0.12159 -0.21469 -1.0445 1.3097 0.61465 0.61595 -0.0047455 0.20619 0.40811 0.80564 -0.54675 0.94212 -0.59391 0.64745 0.069648 -0.96909 -0.70789 -0.048955 -0.039549 -0.86406 -0.13994 0.62162 0.30391 0.31126 -0.77233 0.042582 -0.89744 -0.97232 -0.73046 1.0724 0.65416 -0.17555 -0.8609 -1.0594 0.88576 0.76467 -1.2309 0.40257 1.0837 0.25021 -1.0427 1.1887 -1.285 0.47299 -0.42467 -0.26375 -1.0907 -0.51868 0.073287 0.90481 1.2486 -1.3546 -0.89934 0.34988 -1.578 -0.10199 -0.72913 -0.21986 0.64953 0.91956 -0.34248 0.43697 0.90687 -0.8484 0.44798 -0.47979 -0.31923 0.75884 0.34628 0.43712 0.54524 0.085414 -0.14502 0.17388 -0.15863 1.018 0.64115 0.41401 0.73757 0.6504 1.1978 -0.28468 0.026093 -0.3051 0.84216 1.0176 -0.042125 -0.48645 -0.71144 -0.61486 0.34908 0.059893 -0.56669 1.1566 -0.06981 -0.54504 -0.52425 0.79763 -0.3465 -0.12184 -0.59419 -0.6398 -0.089044 -0.64856 -0.85136 -1.031 -0.063831 0.54295 0.062145 -0.64916 -0.17494 -0.72398 0.17947 0.02849 0.47083 -0.42492 -0.26169 0.30011 -0.77985 0.19249 -0.68353 0.56436 -1.0247 0.22651 0.37591 -0.091457 1.0461 0.5764 -0.66636 0.92877 0.58428 -0.31706 -0.96229 0.90456 -0.28136 -0.43268 -1.1275 0.17155 -0.81791 -0.54102 0.44692 -0.79331 -0.27284 0.97832 0.63917 -1.1353 -0.11774 -0.47131 0.78207 -0.80303 0.78615 -0.20265 -0.49484 0.056301 -0.70332 -0.22951 -1.1101 0.16103 -0.30511 -0.098009 -0.87774 0.16304 -0.402 -0.023259 0.35589 0.69929 -1.7087 0.016922 0.60715 -0.32466 -0.53577 -0.03142 -0.72006 -0.2041 -0.76084 -1.2101 -2.1198 -0.97979 -0.22122 0.28409 1.0672 -1.0458 -0.1995 -0.15183 -0.01885 1.0175 0.12367 -0.57744 0.63746 1.357 0.12885 0.85648 -0.025042 -0.38799 0.38742 0.34479 -1.1589 0.078681 -0.92524 -1.1902 -0.79845 -0.70843 -0.15839 -1.076 0.19174 0.53646 1.0828 0.1763 
和 -0.31037 1.1347 -0.70423 0.34778 0.81109 -0.45088 -0.73172 -0.0037172 0.31307 -0.11988 0.88648 0.10288 1.3479 -1.0142 0.14362 -0.8497 0.98241 -0.34361 -1.3651 -0.7671 -1.139 1.3567 1.3339 0.012597 0.72951 -0.5794 1.1136 0.22623 0.84683 0.3204 0.93802 -1.0654 -0.96712 -0.79972 -0.87646 1.2098 1.122 -0.7096 0.20419 1.4888 0.79531 1.1966 1.1963 -1.4378 -0.33153 -0.63345 -0.71391 -0.46471 0.59989 -0.90495 1.2862 -0.35363 -0.3976 -0.58548 0.15036 -1.1651 -1.1367 -1.506 -3.6413 0.47265 1.2495 -0.20516 0.98768 1.309 0.59458 1.0467 -0.87399 -0.70918 -0.57908 -0.28406 1.5264 -0.84482 1.2815 -0.65571 -0.89226 0.29973 -0.050611 -0.91818 -0.58018 -1.3756 -0.32699 0.031196 0.94299 -0.81279 -0.91291 -0.95724 0.20718 0.59937 0.13199 -1.1759 -0.79536 0.88128 -0.026585 -0.020281 -1.0238 1.3851 0.81535 0.58945 0.076863 0.43948 0.49602 0.64515 -0.61556 1.1405 -0.70311 0.63551 0.049997 -0.79073 -0.73226 0.077789 0.26057 -0.86617 -0.1545 0.52765 0.38027 0.39572 -0.62743 0.11727 -0.77433 -0.98783 -0.64824 0.81013 0.77846 -0.013079 -0.72115 -1.0015 0.71987 0.7523 -1.11 0.53101 0.94063 0.28537 -0.97815 1.1708 -1.1812 0.25439 -0.54976 -0.33884 -0.98464 -0.49367 0.090522 0.85137 1.4159 -1.2787 -0.83552 0.46282 -1.6628 -0.19279 -0.90204 -0.30317 0.68088 0.89654 -0.11493 0.36986 0.9186 -0.9518 0.49086 -0.43842 -0.044685 0.60037 0.39675 0.31385 0.38548 0.004037 -0.083527 0.22171 -0.23456 1.0543 0.50827 0.2034 0.60682 0.65033 0.97571 -0.015224 0.18242 -0.080287 1.0002 0.74905 -0.11301 -0.63037 -0.77492 -0.63609 0.4295 0.19976 -0.38963 0.96584 0.029481 -0.68471 -0.63766 0.81061 -0.34469 -0.23467 -0.80219 -0.59622 -0.10548 -0.87805 -0.79325 -0.93497 0.037489 0.61498 -0.0040087 -0.27555 -0.17433 -0.73319 0.10671 0.20124 0.24628 -0.37843 -0.26061 0.31478 -1.181 0.23816 -0.65322 0.45451 -0.81474 0.19572 0.40916 -0.16546 0.87139 0.72464 -0.55408 0.8055 0.52174 -0.29618 -1.2178 0.82906 -0.39336 -0.28119 -1.0952 0.18469 -0.96886 -0.62223 0.18105 -0.7694 -0.23674 1.1523 0.54684 -1.1235 -0.19407 -0.26157 0.66628 -0.92651 0.76838 0.029929 -0.37662 0.02764 -0.50598 -0.3453 -0.97283 0.015747 -0.31432 -0.01624 -0.72106 0.14689 -0.39955 -0.030282 0.52438 0.7775 -1.5162 0.062328 0.57049 -0.30271 -0.3262 -0.055154 -0.22494 -0.014086 -0.95047 -0.94153 -2.0435 -1.1207 -0.18908 0.49496 1.1066 -0.78302 -0.19747 -0.31195 -0.14666 0.98341 -0.15417 -0.64059 0.67552 1.3 0.058533 1.0063 0.27511 -0.30682 0.45234 0.36409 -0.90845 -0.12379 -0.69091 -1.3466 -0.71395 -0.65706 -0.09845 -0.8681 0.47574 0.34668 0.99249 0.36312 
# -0.27551 0.72878 -0.61932 -0.16785 1.2113 -0.46148 -0.738 0.24206 0.54837 -0.37901 1.0133 0.598 1.5115 -1.0585 0.10913 -0.59801 1.272 -0.63184 -1.6071 -0.9015 -0.86349 1.2206 1.2256 -0.038757 0.81632 -0.40242 1.2981 0.4935 0.76254 0.37967 1.0083 -1.0735 -1.2807 -0.9943 -0.90467 1.378 1.3189 -0.20238 0.15547 1.5195 1.2119 1.4454 1.1959 -1.8004 -0.3625 -0.38051 -0.70176 -0.40676 0.40839 -0.95333 1.5574 -0.51515 -0.3409 -0.67454 0.025923 -1.169 -1.3263 -1.437 -3.902 0.49418 1.2939 -0.27751 0.87132 1.3192 0.52103 0.79076 -1.189 -0.7325 -0.50315 -0.11816 1.6249 -0.92405 1.4224 -0.87746 -0.82671 0.70288 -0.17759 -1.0293 -0.55951 -1.6105 -0.32839 -0.026306 1.2542 -0.67871 -1.0959 -0.99306 0.40225 0.22448 -0.31953 -1.2115 -0.71639 0.49686 -0.039146 -0.3005 -0.87606 1.1842 0.6799 0.45414 0.1569 0.17862 0.38496 0.76538 -0.53864 1.3146 -0.86999 0.58856 -0.058644 -0.91708 -1.0713 -0.074044 0.046725 -0.9842 -0.16922 0.61186 0.29577 0.45255 -0.69618 0.18753 -0.71186 -0.8675 -0.65808 1.1889 0.51153 -0.072981 -0.44586 -0.96884 0.90679 0.60205 -0.97913 0.58953 0.91896 0.59091 -0.80278 0.90232 -1.498 0.45351 -0.27933 -0.13072 -1.0174 -0.63506 0.23519 1.053 1.6754 -1.397 -1.0741 0.66583 -1.6858 0.01843 -0.64143 -0.20008 0.88593 0.94995 -0.18989 0.31223 0.87714 -0.74059 0.50985 -0.45053 -0.11153 0.69322 0.76173 0.57542 0.54229 -0.2272 -0.31213 0.35645 -0.044586 1.1287 0.96845 0.10714 0.61637 0.79877 1.5029 -0.12402 0.091893 0.28942 1.2276 1.1327 -0.13194 -0.77629 -1.0406 -0.57967 0.24799 0.16468 -0.041737 0.7699 0.28245 -0.61644 -0.64345 1.0002 -0.27678 -0.16704 -0.68832 -0.50187 -0.47509 -0.51418 -0.69569 -0.48256 0.091402 0.75748 -0.068152 -0.83833 0.21653 -1.3059 0.2589 0.18593 0.076556 -0.6346 -0.078502 0.24283 -1.0974 -0.048972 -0.75139 0.2975 -0.36381 0.17712 0.96097 -0.35001 1.3183 0.68437 -0.55269 0.6643 0.51116 -0.56897 -1.1956 0.96848 -0.12235 -0.25333 -1.3174 0.18353 -1.0232 -0.51935 0.46293 -0.4045 -0.23819 0.95184 0.76416 -1.2775 -0.0042289 -0.37312 0.71418 -1.0789 0.93255 -0.0047084 -0.50046 0.065002 -0.50094 -0.17468 -0.79794 -0.068045 -0.29458 0.25256 -1.0133 0.42177 -0.52247 0.45218 0.59854 0.33864 -1.3596 0.03399 0.37495 -0.45216 -0.50366 -0.0031869 -0.1878 -0.148 -1.1533 -0.91975 -2.3544 -0.75152 0.26454 0.33674 1.4218 -0.62843 -0.081944 -0.22235 0.31591 0.81219 0.10378 -0.46851 0.47139 1.0595 0.025565 1.5546 -0.059309 -0.048087 0.49929 0.93756 -0.78808 0.23389 -0.83386 -1.0482 -1.1785 -0.82371 0.38584 -1.087 0.27645 0.39563 0.92982 0.13228 
》 -0.054914 0.76139 -0.56124 0.14022 0.76601 -0.34317 -0.61606 0.24084 0.56613 -0.067662 1.0283 0.10395 1.5927 -1.0489 -0.02576 -0.93982 0.93519 -0.71929 -1.4151 -0.65927 -1.2956 1.1322 1.2887 -0.032471 0.49981 -0.50311 1.3273 0.14679 0.55712 0.40548 0.77501 -1.0534 -0.98775 -0.75283 -0.98817 1.1863 1.1196 -0.80375 0.37775 1.9751 1.0052 1.1772 1.1944 -1.4219 -0.38949 -0.36697 -0.86486 -0.37473 0.57875 -0.96449 1.4867 -0.3373 -0.4111 -0.70105 0.16405 -1.1722 -1.142 -1.3289 -3.6617 0.74247 1.247 -0.1379 1.1316 1.1949 0.49894 1.0824 -1.1956 -0.77278 -0.63416 -0.091248 1.717 -0.88367 1.5876 -0.569 -0.82987 0.63039 -0.0255 -1.143 -0.48421 -1.3776 -0.24191 0.084211 0.9307 -0.82005 -0.7899 -1.0066 0.22431 0.71635 -0.11853 -1.3161 -0.52439 0.72129 -0.17147 -0.19137 -1.0013 1.2619 0.65226 0.55943 -0.0068272 0.13746 0.63611 0.62204 -0.58904 0.85683 -0.85157 0.71334 -0.050029 -0.99837 -0.95193 0.15791 0.50324 -0.84692 -0.25658 0.50386 0.41697 0.46812 -0.77277 0.11476 -1.1136 -0.81358 -0.59996 0.97203 0.83495 -0.043631 -0.85903 -1.3424 1.0595 0.68115 -1.0921 0.61418 0.98112 0.3239 -0.94294 0.86605 -1.1928 0.50582 -0.40577 -0.23825 -0.60076 -0.56229 -0.059529 0.74927 1.2439 -1.3408 -0.87645 0.29226 -1.543 0.00050364 -0.80396 -0.058079 0.50624 0.72063 -0.0033439 0.26805 1.0714 -0.80449 0.48812 -0.35718 -0.28279 0.67519 0.53025 0.52061 0.69802 -0.16625 -0.010097 0.29189 0.0021722 1.1523 0.81885 0.10896 0.57961 0.53736 0.9235 0.046605 0.32011 0.02941 0.7831 0.67873 -0.054788 -0.44257 -0.30803 -0.63587 -0.024567 0.42476 -0.39937 1.0552 -0.068639 -0.74677 -0.45173 1.0688 -0.43488 0.017909 -0.63679 -0.46027 -0.2717 -0.66903 -0.9796 -1.0052 -0.12008 0.65008 -0.14589 -0.36979 -0.13216 -0.97332 0.1744 0.015254 0.28933 -0.32175 -0.15296 0.4351 -1.2696 0.19876 -0.77447 0.66541 -1.0969 0.026088 0.45744 -0.08003 1.2388 0.6105 -0.7614 0.64064 0.70538 -0.28024 -0.73124 0.7293 -0.17073 -0.39936 -1.2364 -0.13749 -0.87126 -0.70183 0.27961 -0.54142 -0.50007 0.98464 0.6496 -1.2017 -0.70553 -0.35833 0.67627 -0.58477 0.63053 -0.33463 -0.31859 -0.024275 -0.46511 -0.23738 -1.1011 0.028791 -0.31131 -0.39217 -0.95654 0.1462 -0.20551 0.07823 0.42542 0.78507 -1.3228 -0.26365 0.32343 -0.11078 -0.56998 0.054003 -0.71743 -0.38228 -0.50727 -1.0823 -2.1256 -0.86554 0.24081 0.21543 1.1464 -0.75561 -0.21055 -0.36484 0.087283 0.83592 0.10894 -0.30156 0.61264 1.2239 -0.067165 0.89324 -0.16017 -0.43263 0.45743 0.60725 -0.89379 0.01278 -0.59682 -1.43 -0.85531 -0.47628 -0.2324 -1.0224 -0.073002 0.60166 0.95939 0.022566 
《 -0.042027 0.78348 -0.59627 0.19821 0.76637 -0.31764 -0.70573 0.23012 0.63387 -0.084845 1.0422 0.16114 1.5656 -1.1172 -0.05505 -0.90655 0.97067 -0.69932 -1.429 -0.73198 -1.327 1.1207 1.3192 -0.024987 0.51385 -0.51565 1.2734 0.19097 0.55034 0.3693 0.76629 -1.0476 -0.96182 -0.74616 -1.0228 1.219 1.1078 -0.79847 0.3894 1.9426 1.0392 1.2163 1.1891 -1.4429 -0.39572 -0.36546 -0.85397 -0.3879 0.58733 -1.0062 1.4832 -0.33986 -0.38904 -0.7326 0.15727 -1.1982 -1.1334 -1.3282 -3.6957 0.72459 1.2474 -0.18566 1.1477 1.2058 0.43233 1.0515 -1.2363 -0.88144 -0.61751 -0.13142 1.765 -0.89808 1.5786 -0.62386 -0.86496 0.65473 -0.055747 -1.1591 -0.4812 -1.438 -0.22453 0.1026 0.93822 -0.8837 -0.80571 -1.0277 0.15043 0.69243 -0.18454 -1.3434 -0.54689 0.72658 -0.21648 -0.26339 -1.005 1.3299 0.64454 0.52298 -0.013421 0.11275 0.59368 0.64664 -0.59227 0.89825 -0.82908 0.6908 -0.071939 -0.98341 -0.93542 0.19691 0.49189 -0.76833 -0.26995 0.45788 0.48776 0.46678 -0.73305 0.17923 -1.1186 -0.78913 -0.59282 0.98935 0.77908 -0.022339 -0.77608 -1.3195 1.0013 0.68192 -1.0884 0.62552 0.91371 0.41162 -0.95775 0.87774 -1.2324 0.55633 -0.4471 -0.21765 -0.63681 -0.51207 -0.060953 0.78219 1.199 -1.3938 -0.91747 0.28632 -1.5608 -0.065497 -0.82396 -0.073696 0.50264 0.74006 0.0067836 0.26737 1.0348 -0.76106 0.45883 -0.33345 -0.26404 0.71311 0.60972 0.56128 0.65008 -0.16229 0.04691 0.3286 -0.025993 1.1804 0.81313 0.057739 0.56406 0.52827 0.93836 -0.0089373 0.32534 0.045532 0.76065 0.66946 -0.060837 -0.44219 -0.3257 -0.66032 -0.054801 0.42652 -0.32873 1.0395 -0.050332 -0.71878 -0.47388 1.1118 -0.46154 0.080968 -0.58845 -0.38392 -0.2914 -0.63862 -0.95871 -0.95115 -0.11404 0.66522 -0.12163 -0.36577 -0.21877 -0.99054 0.10152 0.071311 0.35555 -0.33042 -0.1609 0.36223 -1.3249 0.18849 -0.7499 0.66424 -1.1182 -0.0034223 0.46742 -0.092346 1.2694 0.61177 -0.67633 0.67592 0.60391 -0.26299 -0.73077 0.70185 -0.17451 -0.4226 -1.1902 -0.13418 -0.95216 -0.66266 0.30143 -0.51656 -0.54172 0.93143 0.60277 -1.2324 -0.72164 -0.33411 0.5859 -0.53873 0.5986 -0.30811 -0.33183 -0.016357 -0.50674 -0.21053 -1.0745 0.016392 -0.33149 -0.33849 -0.92569 0.18717 -0.22942 0.077358 0.40519 0.79806 -1.3268 -0.22591 0.30031 -0.10428 -0.56077 -0.0025155 -0.69836 -0.37799 -0.52528 -1.1121 -2.1416 -0.87804 0.24847 0.15179 1.2321 -0.79357 -0.20115 -0.38315 0.062513 0.87435 0.14915 -0.32351 0.64124 1.2151 -0.11592 0.93828 -0.16684 -0.41326 0.51053 0.61553 -0.90506 -0.01443 -0.62705 -1.3344 -0.87343 -0.45602 -0.28488 -0.96663 -0.10809 0.53458 0.94936 0.046448 
q -0.049125 1.1185 -0.79689 -0.14997 1.054 -0.0082833 -0.77183 -0.34446 0.25409 -0.26101 0.87177 0.53694 2.2392 -1.5303 0.37346 -0.89485 0.93372 0.13196 -1.8091 -1.2138 -0.47158 0.99649 1.2816 -0.029975 0.49993 -0.95014 1.269 0.058642 0.79378 0.59019 1.2141 -0.83634 -1.2378 -0.77029 -0.90182 1.2768 0.76988 -0.73397 0.30567 1.6055 1.1969 1.3399 1.5682 -0.51428 -0.28376 -0.5603 -1.5521 -0.85168 0.60876 -1.256 0.77908 -0.6028 -0.82139 -0.43958 -0.000497 -1.7087 -1.685 -1.6049 -4.1963 0.68041 0.82066 -0.090278 1.1754 0.93188 0.17579 0.41913 -1.3471 -1.0046 -0.031398 0.42394 2.1507 -1.0323 1.4546 -0.92063 -0.7739 0.19353 0.080562 -1.0722 -0.66376 -1.5248 -0.21852 -0.41077 1.6341 -1.0361 -0.62686 -0.45718 0.63131 1.0532 0.71749 -1.0929 -1.1834 1.0965 -0.52181 0.21385 -1.0515 1.2607 0.7986 0.21116 -0.23246 0.35291 0.13901 0.33134 -1.06 1.594 -0.86255 0.11809 -0.14968 -0.71731 -0.90955 -0.43229 0.45692 -1.22 0.44124 0.18161 0.12435 0.63091 -0.22484 0.25916 -0.87265 -0.96753 -1.2185 0.67902 0.92405 0.1219 -0.86798 -1.191 1.111 0.92214 -1.2452 0.41986 0.43154 0.12969 -0.6049 1.1983 -1.0506 -0.12501 -0.58494 0.11002 -1.2334 -1.2114 0.01775 0.65776 1.406 -1.213 -0.73405 0.551 -1.5294 0.15483 -0.90417 -0.076556 0.89011 0.39553 -0.41937 0.28694 1.2371 -0.71628 0.75806 -0.65095 -0.25233 0.49213 0.57129 -0.062049 0.51442 -0.41377 -0.035418 0.13899 -0.17847 1.6928 1.3802 0.29402 -0.31664 0.8593 1.3 0.47293 0.042289 0.39342 1.294 0.84123 -0.16336 -0.78018 -0.90168 -0.58441 0.35693 0.25988 -0.27695 0.70079 -0.28147 -0.88796 -0.069393 0.46936 -0.20725 -0.14376 -1.3002 -0.31815 0.47835 -0.585 -1.3759 -0.74426 0.32821 0.15492 -0.25663 -0.5067 0.35062 -1.7506 0.14584 0.21846 0.014247 -0.23875 -0.79017 -0.067113 -1.3488 0.82147 -0.29865 -0.02022 -0.48785 0.62573 0.78285 0.078722 0.8776 1.0345 -0.92827 0.65381 0.8332 -1.1329 -1.6764 1.6308 -0.079773 -0.16244 -1.416 -0.12566 -1.1025 -0.71327 0.021755 -0.62903 0.38284 1.37 0.93242 -0.86152 -0.11155 -1.0897 0.9232 -0.22536 1.1142 -1.0441 -0.2049 0.060878 -0.83649 -0.31475 -0.47641 1.0933 -0.03397 -0.26073 -0.73533 0.19015 -0.26556 -0.16606 0.80722 0.79006 -1.4115 -0.23595 0.60662 -0.53641 -0.70385 -0.12059 -0.61206 -0.12076 -1.3785 -1.3147 -2.7082 -1.771 0.082799 0.24505 1.6186 -0.42442 0.55586 -0.37875 -0.49568 0.61043 0.36971 -0.37889 1.3001 2.1072 0.54593 0.28713 -1.0876 0.25193 0.67079 0.058228 -1.8232 0.14765 -0.97399 -1.8947 -0.58381 -0.79037 0.41997 -1.7439 -0.05705 0.16814 1.677 0.58248 
了 -0.0080566 1.2048 -0.76714 0.56492 0.85466 -0.54466 -0.73662 -0.030752 0.27563 -0.20471 0.86829 0.10989 1.4393 -1.0527 0.070683 -0.81679 0.88579 -0.4771 -1.2794 -0.86099 -1.2182 1.3994 1.3768 -0.098744 0.71076 -0.40933 1.036 0.13764 0.94605 0.6264 0.99121 -1.1347 -1.0217 -0.73232 -1.0212 1.205 1.3134 -0.63037 0.17567 1.5978 0.93185 1.2143 1.1512 -1.3162 -0.30571 -0.56945 -0.8756 -0.48286 0.63075 -0.95189 1.1137 -0.34528 -0.44972 -0.63426 -0.0033221 -1.1247 -1.1741 -1.3672 -3.5075 0.53567 1.2785 -0.29376 0.99099 1.4191 0.61646 1.0069 -1.0968 -0.64364 -0.72185 -0.36488 1.5908 -0.99411 1.1918 -0.59715 -0.89117 0.5372 -0.053088 -1.031 -0.80751 -1.2018 -0.20659 0.080529 0.98924 -0.89739 -0.90966 -0.95275 0.074842 0.59263 0.28097 -1.0879 -0.77003 0.93172 -0.31422 -0.028163 -1.0058 1.2543 0.80928 0.79583 -0.013142 0.33085 0.75126 0.73117 -0.57689 1.0789 -0.68637 0.77372 0.021532 -0.955 -0.85841 0.039376 0.10062 -0.91791 -0.031703 0.47113 0.36196 0.38759 -0.6156 0.2379 -0.78569 -0.98251 -0.71495 0.95101 0.85093 -0.072597 -0.87913 -1.1153 0.85882 0.71123 -1.1342 0.50483 1.0327 0.31001 -0.78017 1.1243 -1.3756 0.4258 -0.50325 -0.35173 -0.96097 -0.58421 0.20997 0.82045 1.1146 -1.2538 -0.91175 0.43206 -1.6824 -0.087446 -0.84407 -0.43623 0.6632 0.95459 -0.191 0.37319 0.88431 -0.83897 0.44802 -0.45961 -0.025744 0.71792 0.55156 0.34899 0.56093 0.060372 -0.093262 0.011553 -0.082915 1.0941 0.42926 0.47877 0.623 0.66193 1.0061 -0.10536 0.078251 0.023385 0.89692 0.95731 -0.059147 -0.58338 -0.84994 -0.57204 0.20033 0.067374 -0.58467 1.1368 -0.039626 -0.85967 -0.58119 0.80646 -0.19261 -0.1509 -0.46659 -0.73111 -0.33865 -0.75511 -0.52539 -1.1229 0.031997 0.70667 0.0074201 -0.51656 -0.23035 -0.73101 -0.010912 0.15534 0.59886 -0.45838 -0.060466 0.5114 -1.1541 0.46048 -0.58197 0.41966 -0.931 0.2474 0.29553 -0.22076 1.0837 0.65058 -0.65908 0.69096 0.60309 -0.19504 -1.0444 0.81025 -0.26546 -0.11352 -1.113 -0.065172 -0.95833 -0.4542 0.27277 -0.79066 -0.39191 1.067 0.53409 -1.1966 -0.24885 -0.3213 0.78831 -1.0164 0.74448 0.045683 -0.20571 -0.021798 -0.3149 -0.11879 -0.87069 0.51013 -0.36451 -0.16746 -0.96021 0.14948 -0.46143 -0.16555 0.50693 0.76953 -1.4252 0.059403 0.41902 -0.41114 -0.32714 -0.011797 -0.28865 -0.020037 -1.1048 -1.1328 -2.0755 -1.3078 -0.20791 0.43504 1.1504 -0.82448 0.036551 -0.37949 -0.076266 1.2108 -0.026603 -0.66524 0.81084 1.1351 -0.14927 0.93984 0.054077 -0.16368 0.34832 0.34793 -1.0864 0.044216 -0.81494 -1.372 -0.46445 -0.81611 -0.098145 -1.0016 0.34199 0.3419 1.0264 -0.0073242 
· -0.29419 0.8565 -0.56189 0.02131 0.96897 -0.44505 -0.87921 0.091427 0.4075 -0.37232 0.86953 0.66901 1.859 -1.4387 0.1522 -0.7526 1.0908 -0.13426 -1.3541 -1.0473 -1.0093 1.6456 1.2509 0.14824 0.62249 -0.60385 1.4152 0.35662 0.64847 0.18477 1.0827 -1.0087 -1.2469 -0.67594 -1.4607 1.108 1.0774 -0.70614 0.33368 1.7217 1.1279 1.146 1.3418 -1.3453 -0.23308 -0.39559 -1.0115 -0.51331 0.45075 -0.99424 1.1933 -0.41845 -0.61192 -0.45565 0.3057 -0.83751 -1.3369 -1.581 -3.7411 0.50041 1.428 -0.064066 1.0957 1.4908 0.60956 1.3338 -1.2369 -0.98176 -0.57968 -0.29306 1.736 -1.0691 1.3845 -0.592 -0.8389 0.83986 0.16759 -1.0103 -0.4696 -1.5207 -0.44237 0.041098 0.71458 -0.83605 -0.91431 -0.99771 0.0055324 0.62387 -0.041643 -0.99833 -0.91368 0.99951 -0.28829 0.045567 -0.73661 1.3189 0.86261 0.46567 0.24689 0.27619 0.21357 0.75002 -0.61513 1.2354 -0.96473 0.65601 -0.20827 -0.83448 -0.83115 -0.056558 0.049959 -1.3522 -0.13741 0.74095 0.49184 0.42852 -0.3394 0.49356 -1.0353 -0.80327 -0.75095 0.74118 0.66728 0.15566 -0.61093 -1.3826 1.0339 0.73905 -1.2831 0.34091 0.66868 0.74259 -0.92268 0.89235 -1.7221 0.33204 -0.67016 -0.20846 -0.94348 -0.56023 0.26161 0.76253 1.5881 -1.4888 -0.92823 0.60817 -1.6581 -0.20782 -0.95442 -0.13729 0.2799 0.87148 -0.69318 0.45435 0.79817 -0.62108 0.37582 -0.3002 -0.28387 1.0328 0.78501 0.12218 0.72916 -0.4231 -0.25272 0.36777 -0.43029 1.3928 0.56335 0.64805 0.6328 0.67959 1.1866 0.12938 0.14613 0.029131 0.85757 1.1247 0.027036 -0.33492 -1.0206 -0.78974 0.27505 0.32009 -0.0046714 1.2783 -0.10016 -0.88658 -0.60604 0.91951 0.0721 0.028303 -0.83538 -0.49228 -0.14689 -0.37734 -0.8829 -0.6072 0.12718 0.42559 -0.41375 -0.52999 -0.25834 -0.7326 0.19718 -0.018324 0.75625 -0.74586 -0.045454 0.27202 -1.33 0.22166 -0.71167 0.3725 -1.0144 0.26825 0.8733 -0.11772 0.89181 0.8578 -0.95704 0.77997 0.92606 -0.57102 -0.9132 0.713 -0.44857 -0.14667 -1.0469 0.28676 -1.1135 -0.39449 0.10675 -0.71321 -0.38609 1.1331 0.19062 -1.4452 -0.39894 -0.37374 0.91103 -0.62215 0.93761 -0.27281 -0.50013 0.024423 -0.57302 -0.52363 -1.0422 0.34392 -0.67795 -0.13114 -0.86703 -0.093741 -0.31032 0.0074376 0.28822 0.95313 -1.6709 0.13981 0.0067705 -0.22758 -0.48013 -0.20346 -0.31733 0.19375 -1.077 -0.62177 -1.9064 -1.1865 0.1272 0.72377 0.96148 -0.46195 0.16486 -0.14209 -0.43593 0.29869 -0.057687 -0.75014 1.1265 1.0732 0.061401 1.0917 -0.018921 0.034341 0.72956 -0.1665 -0.73623 -0.16491 -1.1321 -0.91422 -0.6665 -0.79789 0.02642 -1.1332 0.36564 0.64902 1.0232 -0.085502 
村 -0.10107 1.0064 -0.47357 0.12547 0.83059 0.10898 -0.51439 0.39797 0.48912 -0.54477 1.4229 0.047442 2.1602 -1.5928 -0.11312 -0.56512 1.0603 0.068359 -1.5464 -0.62051 -1.0176 0.95807 1.4849 0.079551 1.0188 -0.96833 0.83444 0.18219 0.66605 0.45091 1.4634 -1.1044 -0.99099 -1.5237 -0.85247 1.362 1.389 -0.68209 0.2157 1.6748 1.0293 1.4407 1.1744 -1.3847 -0.68362 -0.58103 -0.93737 -0.39095 0.8257 -0.99984 1.4549 -0.12384 -0.6112 0.021205 0.36061 -0.88356 -1.2336 -1.3158 -4.2635 0.89433 1.1018 -0.8548 1.1491 1.1681 0.55967 1.4092 -1.0306 -1.1243 -0.93343 -0.29292 1.6984 -0.67988 1.4084 -0.57542 -0.42878 1.0877 -0.12387 -1.2973 -0.58328 -1.2717 -0.18507 -0.032719 0.82656 -0.70839 -1.0455 -1.3751 0.33622 0.85459 0.40465 -0.96875 -0.94721 0.71599 0.13775 0.3058 -0.60352 2.0732 0.46261 0.4793 -0.014361 0.41211 0.49873 0.50673 -0.74818 1.0179 -0.91453 0.81129 -0.14291 -1.2445 -1.1524 0.001491 0.16429 -0.57396 0.022385 0.38459 0.20902 0.6973 -0.76572 -0.080914 -0.93527 -1.1986 -1.0753 0.75432 0.62371 0.24247 -0.55722 -0.85543 0.9364 0.90611 -1.0129 0.23044 1.346 0.58819 -0.96434 0.99969 -1.4194 0.16284 -0.39444 0.21383 -1.0193 0.11265 0.16191 1.1742 1.2171 -1.2363 -0.96527 0.74926 -1.9689 0.29601 -0.78224 0.49455 0.67576 0.6657 -0.56082 0.5192 1.1968 -0.96506 -0.093105 -0.96104 -0.0036872 0.47087 0.73946 0.42045 0.3084 0.033831 -0.24707 0.28669 -0.47838 1.168 0.10199 0.29716 0.92968 0.83999 1.2726 0.19747 -0.088906 -0.035697 0.90232 1.1448 0.23948 -0.53478 -1.2226 -0.92154 0.44678 0.54633 -0.60641 0.81464 0.57919 -0.60976 -0.56463 1.2533 -0.17679 -0.34126 -1.0105 -0.61971 -0.39182 -0.8208 -1.107 -1.0206 -0.54645 1.023 0.20778 -0.2634 0.19069 -0.49309 0.10841 0.64146 0.60633 -0.88593 -0.48025 0.14904 -0.747 0.23141 -1.1928 -0.065186 -0.84053 0.19512 0.40853 0.021554 1.1067 0.61715 -0.83949 0.99357 0.85109 0.063041 -1.1304 0.97495 -0.25776 -0.90532 -1.5149 0.4006 -1.212 -0.47763 0.19376 -0.78033 -0.10311 1.3305 0.2581 -1.0432 -0.18275 -0.34184 0.76411 -0.53659 0.79112 -0.72861 -0.20803 0.00081961 -0.36477 -0.079041 -0.90424 0.2252 -0.014082 0.051915 -1.2775 0.23044 -0.54684 0.29389 0.052473 0.77253 -1.6084 0.28595 0.40573 -0.67082 -0.64523 -0.22236 -0.86471 -0.5501 -1.0282 -1.023 -2.4373 -0.91329 0.073033 0.56685 1.6334 -1.0818 -0.10879 -0.58466 -0.58673 0.62126 0.79265 -0.44414 0.75289 1.1753 0.17322 0.84495 0.65104 -0.16986 0.30638 0.20897 -1.5884 0.5331 -1.0035 -1.6673 -0.19975 -1.1127 0.21289 -1.1299 -0.25485 0.33673 0.65961 0.13423 
人 -0.052124 0.97791 -0.79392 0.48453 1.0558 -0.44066 -0.66561 -0.0039954 0.32513 -0.063004 1.1122 0.19933 1.5603 -0.79186 0.2637 -0.60796 0.93064 -0.48999 -1.1216 -0.60181 -0.84879 1.3508 1.1858 -0.084959 0.925 -0.44624 1.02 0.017644 0.53356 0.23926 1.1629 -1.1245 -1.1882 -0.87683 -0.967 1.4256 1.045 -0.71181 0.24888 1.522 0.96061 1.2088 1.5968 -1.5597 -0.30201 -0.50731 -0.81373 -0.37643 0.35704 -1.1213 1.1916 -0.26088 -0.64577 -0.5056 -0.031817 -1.0088 -1.2499 -1.4071 -3.8424 0.41668 1.2147 -0.07114 1.1282 1.5381 0.61783 1.1271 -1.0265 -0.75596 -0.60853 -0.39419 1.7352 -1.0703 1.4868 -0.53302 -1.0431 0.11326 -0.11615 -0.99943 -0.42315 -1.4343 -0.16765 -0.067865 1.0131 -0.91485 -0.65469 -1.2537 0.099553 0.5895 -0.12842 -1.1628 -0.87796 0.81231 -0.24707 -0.14026 -0.78022 1.1773 0.69922 0.76279 -0.30506 0.35969 0.67344 0.78724 -0.66937 0.86365 -1.0207 0.89388 -0.03896 -0.88396 -1.0831 -0.16165 0.18454 -0.7086 0.082382 0.24117 0.28911 0.26737 -0.7235 0.30994 -0.93517 -0.65322 -0.81383 0.79358 0.86706 -0.035645 -0.81672 -1.2927 0.82363 0.76634 -1.0345 0.51298 0.70909 0.58684 -0.78694 0.97668 -1.3401 0.27169 -0.36568 -0.28271 -0.9992 -0.52586 -0.31209 0.85832 1.0121 -1.3411 -0.88842 0.57375 -1.6117 -0.33621 -0.67524 -0.097573 0.32049 1.0103 -0.17486 0.48335 1.3189 -0.68528 0.43985 -0.38694 -0.24025 0.9824 0.4089 0.31399 0.35184 -0.20081 -0.043025 0.30797 -0.32035 0.89709 0.50148 0.27288 0.85769 0.87625 1.3275 -0.18988 0.2046 0.088475 0.82105 1.0314 0.073911 -0.55909 -0.83106 -0.29318 0.41192 0.17998 -0.57884 0.88323 0.034078 -0.56529 -0.25861 0.78759 -0.23331 -0.071516 -0.48321 -1.0117 -0.092335 -0.86888 -0.79719 -0.99898 -0.06024 0.56515 -0.024811 -0.16838 -0.34861 -0.44315 0.03615 0.55266 0.44938 -0.47458 0.017569 0.27175 -1.1452 0.61319 -0.38875 0.41277 -0.74255 0.53819 0.54074 -0.013083 1.0984 0.46559 -0.91928 1.1499 0.48849 -0.35363 -0.88197 0.76595 -0.35088 -0.24987 -1.0251 0.044337 -0.71637 -0.52829 0.33231 -0.48038 -0.34523 1.173 0.49027 -0.93485 -0.43869 -0.73576 0.85284 -0.75173 0.60696 -0.11923 -0.22734 -0.20088 -0.52109 0.31252 -0.85514 0.20046 -0.39834 0.22518 -0.97987 0.39173 -0.66439 -0.073796 0.73607 0.91929 -1.7077 0.082766 0.53474 -0.1906 -0.52017 0.058685 -0.28917 -0.3486 -1.046 -0.8335 -2.0526 -1.191 0.051488 0.51932 1.3162 -0.40843 -0.33963 -0.38827 -0.23297 1.0708 -0.3924 -0.8724 0.64282 1.2693 0.4 0.64212 0.35854 -0.39289 0.31487 0.24984 -1.0373 0.18027 -0.65971 -1.022 -0.7049 -0.8802 0.24355 -0.74109 0.093733 0.48155 1.52 0.27012 
% -0.34199 0.75825 -0.50818 -0.046317 0.75923 -0.39172 -0.79292 -0.11456 0.49785 -0.079476 1.3681 0.52656 1.5756 -1.5379 0.32079 -0.63913 1.1643 -0.26184 -1.7799 -0.95403 -0.50752 1.1767 1.3167 0.013471 0.86577 -0.70987 0.89959 0.097818 0.69263 0.16768 1.2011 -0.56684 -1.475 -0.33798 -0.86758 1.6821 0.76138 -0.72454 0.11715 1.3851 1.0705 1.1946 1.4325 -1.2031 -0.1708 -0.72457 -0.76933 -0.43008 0.5259 -0.94388 1.0884 -0.45209 -0.87403 -0.4455 0.22759 -1.3046 -1.8494 -1.5877 -3.8669 0.49671 1.2754 -0.061859 1.0597 1.1998 0.18524 0.77713 -1.218 -0.51985 -0.25854 0.10184 1.7954 -0.83886 1.9348 -0.88018 -1.1881 0.092721 0.12826 -1.1608 -0.33956 -1.6757 -0.68751 -0.43813 1.6489 -1.0205 -0.82766 -0.8179 0.47296 0.48633 0.29429 -1.1952 -0.87772 1.1283 -0.67234 -0.17179 -0.81665 1.1957 0.54224 0.066354 -0.086149 0.46851 0.36626 0.53506 -0.50718 1.5496 -0.98638 0.07775 -0.37098 -0.83146 -0.82835 0.15056 0.19822 -0.9941 0.091673 0.25936 0.1545 0.39877 -0.46565 0.029685 -0.54855 -0.80366 -0.90983 1.0625 1.4037 -0.076416 -1.048 -1.1034 0.62941 0.73127 -1.2403 0.43515 0.82204 0.35156 -0.67078 1.03 -1.3989 -0.13519 -0.91642 -0.0051923 -1.353 -1.4108 -0.43683 0.64174 1.7227 -1.3516 -0.93623 0.62666 -1.5181 0.084842 -1.1501 -0.0832 0.55573 0.47484 -0.25324 0.64764 1.2918 -0.69928 0.85087 -0.56341 -0.4224 0.55647 0.76022 0.22861 0.14537 -0.89621 0.09157 0.2544 -0.30546 1.3281 0.94029 0.57676 0.26984 0.95959 1.0241 0.46678 0.28816 0.093907 1.0388 1.3404 -0.24043 -0.62304 -0.40721 -0.83495 0.5372 0.16053 -0.19098 1.1098 -0.047338 -0.66999 0.3713 0.30074 -0.17283 -0.095912 -0.76406 -0.22137 0.095762 -0.7504 -0.65997 -0.69525 0.10822 0.5732 0.4208 -0.57031 0.23509 -1.4867 0.055267 0.1939 0.83657 -0.31363 -0.5287 0.17603 -1.3322 0.33162 -0.71754 0.20652 -1.0061 0.73367 0.88837 -0.053262 0.74391 1.0831 -0.84998 1.1867 0.63736 -0.40959 -1.6554 1.6795 -0.27629 -0.12691 -1.1792 0.10377 -0.98537 -0.77674 -0.45659 -0.48111 -0.099276 1.271 0.95407 -1.0642 0.077611 -0.4355 0.82835 -0.99765 0.8973 -0.57893 0.42643 -0.15645 -0.30643 -0.26855 -0.59312 0.82945 0.0015172 -0.34259 -0.83025 0.44306 -0.53821 -0.50312 0.89532 0.6811 -1.5581 0.10468 0.65925 -1.0125 -0.48072 -0.066049 -0.47134 -0.22135 -1.1936 -1.2801 -2.3707 -1.283 0.25841 0.76419 1.508 -0.33361 -0.034494 -0.51961 -0.49645 0.66777 -0.018223 -0.41842 1.3799 1.8336 0.42659 0.46978 -0.40639 0.19885 0.41769 0.28428 -1.2036 -0.015666 -0.95371 -1.4841 -0.67933 -0.63714 0.66403 -1.3675 -0.16485 -0.1256 1.8917 0.73927 
中 0.056571 1.0066 -0.83329 0.13203 0.88208 -0.34957 -0.65025 0.22051 0.27572 -0.096834 0.94812 0.06526 1.4767 -0.93821 0.028006 -0.6962 1.0746 -0.55889 -1.4477 -0.58818 -1.0947 1.2177 1.3422 0.043834 0.61396 -0.56042 1.1467 0.13875 0.91492 0.33718 0.77799 -0.94657 -1.1875 -0.76069 -1.0082 1.3271 1.1026 -0.52246 0.14862 1.6574 0.65817 1.1659 1.2413 -1.262 -0.46811 -0.29935 -0.80808 -0.52029 0.4694 -1.0083 1.2899 -0.51754 -0.36144 -0.71647 0.13217 -1.0883 -1.1217 -1.3963 -3.8042 0.441 1.2936 -0.058586 0.93533 1.2893 0.47365 0.98877 -1.1598 -0.56798 -0.3558 -0.36697 1.5784 -1.0042 1.3679 -0.6413 -1.0899 0.25893 -0.26661 -0.83718 -0.68838 -1.2536 -0.36103 0.052638 1.0581 -0.90077 -0.7674 -0.88676 0.20632 0.50014 0.1315 -1.0963 -0.71731 0.76826 -0.18813 -0.13918 -1.0914 1.4063 0.94549 0.56112 -0.18125 0.12591 0.42006 0.72931 -0.7568 1.1421 -0.75036 0.85539 -0.028881 -1.0129 -0.85648 0.20839 0.24507 -0.80229 -0.26133 0.55203 0.51748 0.42433 -0.49758 0.18092 -0.72959 -0.83458 -0.89072 0.95752 1.0424 -0.017822 -0.72253 -0.81928 0.63578 0.73397 -1.0607 0.40235 0.90164 0.20347 -1.0621 1.1046 -1.2943 0.34698 -0.45472 -0.33849 -1.0491 -0.58697 0.10373 0.94958 1.4293 -1.1787 -0.7008 0.45618 -1.5938 0.088094 -0.73089 -0.22222 0.58606 0.82375 -0.10327 0.42195 0.81605 -0.88652 0.37226 -0.49698 -0.01193 0.63959 0.38711 0.30751 0.36522 -0.021197 -0.058685 0.37962 -0.17743 1.0667 0.50043 0.50092 0.63949 0.69894 1.0711 -0.042646 0.1481 0.13505 0.96565 0.79282 -0.14296 -0.56434 -0.93849 -0.59513 0.32736 0.21257 -0.5001 0.8757 -0.077029 -0.88225 -0.50988 0.74219 -0.23666 -0.20801 -0.63576 -0.75445 -0.10649 -0.59982 -1.1073 -1.0252 0.055428 0.42115 0.067832 -0.39197 -0.25851 -0.68481 0.21453 0.04228 0.18402 -0.36339 -0.11372 0.30745 -0.85053 0.30797 -0.78974 0.39505 -0.90556 0.3266 0.23177 -0.13369 0.93307 0.73536 -0.6979 0.55012 0.59288 -0.011507 -1.0857 0.8036 -0.15556 -0.16711 -1.3214 0.11502 -0.68972 -0.59514 0.25789 -0.7165 -0.19775 1.1536 0.50277 -1.155 -0.28938 -0.38851 0.71519 -0.91607 0.57115 0.025327 -0.23316 -0.1165 -0.40668 -0.38397 -1.0684 0.16349 -0.2939 -0.099012 -0.7101 -0.099897 -0.54388 -0.098685 0.45944 1.0229 -1.5706 -0.065657 0.36347 -0.24286 -0.44462 -0.019871 -0.49447 -0.16075 -0.61359 -1.0044 -1.8944 -1.0295 -0.17773 0.41196 1.1226 -0.39502 -0.11673 -0.39314 0.041499 1.1041 -0.19225 -0.5136 0.5174 1.3655 0.20339 0.94788 0.27134 -0.36019 0.27448 0.76378 -0.90491 -0.094448 -0.76557 -1.3135 -0.45604 -0.78018 0.0031215 -0.85555 0.13311 0.18678 1.1598 0.13829 
arg -0.21316 -0.195 -0.45726 -0.47329 0.34146 -0.13282 -0.32903 -0.10131 -0.034603 0.06388 0.49358 0.68975 1.1086 -0.89805 0.11712 -0.37254 1.1696 0.33321 -1.159 -0.46706 0.12336 1.4316 -0.17699 0.60083 -0.14624 -0.4951 0.34072 -0.85189 0.38988 0.25477 0.033447 -0.4121 -0.86067 -0.85552 -0.54917 0.35928 0.78451 -0.24448 -0.07662 1.2064 0.22834 0.35685 1.0099 -0.52216 -0.18208 -0.47855 -0.73574 -0.55235 -0.20474 -0.33633 0.18151 -0.19349 -0.43101 0.039597 0.40615 -0.66781 -0.24451 -0.72277 -1.2935 0.36635 0.85899 0.2222 0.1112 0.37857 -0.32028 0.27779 -1.1148 -0.14461 -0.21619 0.31491 0.97504 0.14234 0.97903 -0.84725 -0.66969 0.29355 -0.4031 -1.0945 -0.76507 -0.52739 0.47409 -0.41555 0.46267 -0.48777 -0.88211 -0.37012 0.42892 0.2077 0.32151 -0.65099 -0.46084 1.0628 0.3711 -0.39027 -0.35481 0.40289 0.27186 0.27184 -0.30985 -0.082317 0.2541 0.35 -0.79487 0.95855 -0.10503 0.093281 -0.11524 0.34023 -1.2512 -0.58388 0.25494 -0.46269 -0.13214 0.47324 0.34443 0.23375 -0.14069 0.2203 -0.21531 -0.21454 -0.59249 -0.087494 0.58568 0.58464 -0.19686 0.31451 -0.033859 0.12117 -0.63103 -0.51214 0.61293 0.078583 -0.43093 0.76687 -0.83167 0.86385 0.13023 -0.29659 0.018578 0.70637 0.50829 0.74965 0.23932 -1.8285 -0.81399 0.5004 -1.1409 -0.067383 -0.69787 -0.16039 -0.26683 -0.49328 -0.85984 0.31839 0.71333 -0.5345 -0.26279 -0.021908 0.66159 0.10623 -0.073105 0.033465 0.73215 0.64057 -0.32425 0.51187 -0.74248 0.9534 0.6956 0.31693 -0.042669 0.31813 0.76727 0.71418 -0.13885 -0.27017 0.47533 0.12893 -0.43331 -0.4827 -0.55015 -0.51939 -0.088297 0.42083 0.078852 -0.71155 -0.068558 0.67675 -0.12336 0.86703 0.27004 -0.21029 -0.46944 0.61254 1.0758 -0.22366 -0.26654 -0.72734 -0.095115 0.31252 -0.34268 -0.24142 0.74108 -1.4223 0.35944 0.38301 0.32752 -1.1421 -0.47329 -0.0055618 -0.78881 0.34419 -1.1678 -0.77111 0.79772 0.37702 0.37225 0.28532 0.32849 0.41599 -0.23816 -0.11918 0.76061 -1.1509 -1.4157 0.48663 -0.51722 0.94906 -1.0095 0.17742 -0.37432 -0.48923 0.79057 -1.4521 0.081982 1.2545 0.23747 0.8446 0.71199 -0.11739 1.0036 0.043381 0.49504 -1.3189 -0.21057 -0.017941 -0.085186 -0.24074 -0.090317 0.95667 0.090065 0.041431 -1.0173 0.59408 -0.18152 0.44167 0.28329 -0.40891 -0.58208 -0.081995 0.313 -0.53378 -0.17599 0.32096 -0.55723 -1.3287 -0.59426 -0.26442 -2.9854 -0.89531 0.10986 -0.058595 0.74597 -0.72716 0.85442 -0.0012512 -0.97401 -0.579 0.68909 -0.65053 2.4154 1.2816 0.02663 -1.2424 -1.4368 0.83244 0.47061 -0.55648 -1.5915 0.55059 -1.2292 -1.2924 -0.64856 0.073402 -0.21362 -0.51073 0.20426 -0.47998 1.1562 0.42299 
小行星 -0.84976 -0.040695 -0.62525 -0.23203 0.71652 0.26479 -0.54708 -0.18571 0.72488 -0.10175 0.99146 0.014896 0.77228 -0.98379 0.54708 -0.029953 1.078 -0.1593 -0.56893 -0.33801 0.51266 0.51392 -0.2048 -0.21342 0.044724 -0.71897 0.16194 0.038622 0.26374 0.58828 -0.17838 -0.3792 -0.568 -0.020161 -0.71232 -0.060689 0.8825 -0.31746 0.035477 0.90927 0.71519 0.38392 0.96857 -0.046562 -0.25576 -0.97057 -0.7928 -1.1025 -0.5069 -0.69724 0.92659 -0.69484 -0.3434 -0.30149 0.10781 -0.43507 -0.75684 -1.1066 -1.6017 0.46955 0.65784 0.19011 0.65575 0.82893 -0.125 0.024864 -1.5351 -0.80017 -0.38099 -0.38111 0.55653 -0.45083 0.3342 -0.60088 -0.27898 0.08242 -0.011093 -0.58717 -0.14075 -1.2574 -0.58018 0.21611 0.026375 -0.8868 -0.20201 -0.19353 0.6849 -0.31433 -0.071999 -0.50933 -1.0839 0.7977 -0.27463 0.31613 -0.43279 0.043011 0.24339 0.28199 1.2402 0.56231 -0.033459 0.13072 -0.88385 0.88284 -0.40373 0.099052 -0.39114 -0.49959 -0.72465 -0.27365 -0.27596 -0.90459 0.12155 -0.22847 -0.30045 1.0768 -0.29044 -0.51306 -1.5274 0.30685 -0.23792 -0.57764 -0.18992 0.55792 -0.47796 -0.82122 0.45894 0.55724 -0.53981 0.2642 0.58804 -0.23582 -0.82551 0.71051 -1.1905 0.6244 -0.26491 -0.21589 -0.13977 -0.91156 0.6915 0.80241 1.1355 -1.1709 0.24941 0.32385 -1.2655 0.21427 -0.72565 0.42435 0.15892 0.18531 -0.20552 0.073593 1.1 -0.50657 -0.88141 -0.8313 0.43351 -0.096352 0.29938 0.45929 -0.048782 0.14782 -0.18561 0.057713 -0.64791 0.4249 0.3459 0.25217 0.32843 0.46943 0.71124 0.059052 -0.37575 -0.077412 0.9555 0.084898 -0.21212 0.30993 -0.43052 -0.8861 -0.22584 -0.1944 0.72236 0.083328 -0.47721 0.5363 0.019896 0.44752 -0.030056 -0.59216 -0.055763 0.82811 -0.65854 0.24324 -1.373 -0.62976 0.086606 0.02657 0.57958 -0.13358 0.33949 -0.9245 -0.18408 -0.12399 -0.22328 -0.68138 -1.3246 -0.081776 -0.90705 0.56152 -0.38128 -0.74304 -0.33306 0.054314 0.68894 -0.53176 -0.51174 -0.21531 -0.80171 0.063229 1.1778 -1.3076 -0.0062447 0.53509 -0.025424 -1.1064 -0.78322 -0.15417 -0.34055 0.1356 1.0061 -0.84954 0.13369 0.94175 0.63957 -0.19591 -0.72211 -0.069594 0.47158 -0.41092 -0.0024951 -0.41037 0.17561 -0.59472 0.016205 0.54601 0.019234 0.62453 -0.88018 -0.53556 -1.6012 -0.37547 -0.045597 -0.81022 -0.04826 -0.059906 -0.68674 -0.2046 -1.2393 -0.86755 -0.11709 -0.78031 1.1481 -0.21363 -1.6306 0.48586 -1.6502 -0.12351 0.13382 0.23298 1.2451 0.04556 0.30874 0.62868 -0.69227 0.17197 0.5272 -0.44132 0.75321 1.1844 0.42686 -0.44232 -0.51705 1.1306 0.57664 -0.51068 -0.87218 0.47882 -0.13608 -0.17406 0.076393 -0.71883 -0.059361 -1.2368 0.13416 -0.23705 1.2195 0.39362 
为 -0.20874 0.88951 -0.3737 0.2179 0.51316 -0.23939 -0.64381 0.27949 0.23717 -0.18847 1.0114 0.020394 1.6971 -1.1663 0.07194 -0.66473 0.90091 -0.15423 -1.4024 -0.97722 -0.85934 1.6443 1.0906 -0.13934 0.89265 -0.58637 1.0224 0.21449 0.63293 0.26146 1.4888 -0.99766 -1.0489 -1.06 -0.93952 1.2432 1.063 -0.51304 -0.01682 1.4029 1.092 1.2677 1.1733 -1.1257 -0.68163 -0.50695 -0.67477 -0.35095 0.52584 -1.0659 1.5499 -0.30597 -0.71272 -0.98131 0.19061 -0.97477 -1.2753 -1.5445 -3.4731 0.69767 0.73808 -0.08548 0.58569 1.298 0.38702 1.2847 -1.0944 -0.68958 -0.58139 -0.36015 1.6405 -0.74292 1.5308 -0.59273 -0.97468 0.52053 -0.10278 -1.3526 -0.49759 -1.5187 -0.15992 0.15243 1.0498 -0.88273 -0.88368 -1.2261 0.10893 0.87728 -0.051549 -1.1114 -1.0134 0.67883 -0.074311 -0.13156 -0.99168 1.5122 0.80551 0.48591 -0.050993 0.33353 0.36832 0.41573 -0.44732 0.88639 -0.88279 0.33248 0.0051597 -1.0691 -0.71865 -0.11126 -0.085992 -0.81317 0.15992 0.5605 0.34522 0.26046 -0.68737 0.05224 -0.71322 -0.82014 -0.6624 0.9363 0.71988 0.010045 -0.89887 -1.0471 0.55165 0.51301 -1.2311 0.67181 0.83011 0.15995 -1.3212 1.4607 -1.4594 0.32288 -0.24321 -0.30358 -1.1406 -0.60807 0.098873 1.0814 1.3862 -1.1487 -0.97587 0.503 -1.7103 0.043499 -0.83145 -0.30634 0.7513 0.92766 0.0045776 0.43004 0.91914 -0.84305 0.52025 -0.57385 -0.33552 0.7948 0.41284 0.14031 0.55648 -0.057286 -0.10942 0.07373 -0.24279 0.94579 0.77071 0.015904 0.76157 0.6739 1.5398 -0.62046 0.071102 -0.29187 0.93638 0.81612 0.05014 -0.53149 -0.94889 -0.54397 0.43443 0.03316 -0.45083 0.87099 -0.15463 -0.84092 -0.28251 0.82693 0.028748 -0.3211 -0.71955 -0.61644 0.083459 -0.4485 -0.87575 -0.94107 -0.13711 0.39696 0.044715 -0.52912 0.10393 -0.97872 0.033809 -0.037484 -0.092896 -0.56549 -0.44597 0.42321 -1.0609 0.13431 -0.36264 0.51834 -0.94569 0.13439 0.33874 -0.014465 1.0358 0.37615 -0.55048 0.78854 0.55743 -0.21644 -0.88931 0.94229 -0.44609 -0.46828 -0.87859 0.2447 -0.88695 -0.40805 0.64106 -0.55297 -0.13048 1.0784 0.74064 -1.2409 -0.29015 -0.30389 0.9476 -0.94017 0.77833 -0.12092 -0.36571 -0.32798 -0.55614 -0.11548 -0.98652 0.22363 -0.45815 -0.1298 -0.96118 0.59109 -0.32932 0.088715 0.76567 0.86084 -2.0202 -0.13519 0.53762 -0.58952 -0.34763 -0.33204 -0.57487 -0.36185 -1.0664 -1.4746 -1.9494 -0.87966 -0.28954 0.29686 1.0873 -0.96574 -0.14906 0.12388 -0.33946 0.96441 0.13765 -0.80491 0.48154 1.7619 0.25584 0.72484 0.46648 -0.23144 0.59577 0.38159 -0.9027 -0.15242 -1.2044 -0.99369 -0.6398 -0.72241 -0.11297 -0.65709 0.52054 0.26437 0.88909 0.4581 
original -0.058046 -0.28965 -0.035668 -0.64017 0.3242 0.41365 -0.043475 0.53106 0.15375 -0.57446 0.52202 0.22846 0.92754 -0.7934 -0.43479 0.46037 0.22532 0.53676 -0.31233 -0.45043 0.054854 -0.073013 0.27006 -0.077662 0.10096 -0.7605 -0.28166 0.045836 -0.18842 0.2355 0.085836 -0.2637 0.034589 -0.89735 -0.35222 0.56845 0.35291 -0.30478 0.2233 0.64008 0.48132 0.19513 -0.0053852 0.45639 -0.52148 -0.069142 -0.38866 0.064149 -0.16895 -0.30574 0.42995 -0.25819 -0.11096 0.21484 0.4858 -0.14823 -0.23234 -0.34458 -0.35976 0.76974 0.14816 -0.6598 0.23408 0.27054 -0.054883 0.5574 -0.076078 -0.55571 -0.38808 0.21028 0.092497 0.27569 0.67158 -0.63357 0.32948 0.7543 -0.024429 -0.4608 0.29143 -0.011252 -0.0092141 0.19491 -0.27646 -0.044675 -0.4036 -0.46008 0.369 0.29268 0.4367 -0.12672 -0.34952 0.036425 0.43147 0.31502 0.39043 1.0108 0.056286 -0.066006 0.17686 -0.0085256 -0.10934 -0.21961 -0.16217 -0.050013 -0.46022 -0.017868 -0.052997 -0.51377 -0.55479 -0.048358 0.022455 0.22234 0.50897 0.13332 0.058198 0.096409 -0.17707 -0.42878 -0.20996 -0.34727 -0.26627 -0.095986 -0.23838 0.53068 0.087215 -0.036987 0.087709 0.15663 0.058768 0.14896 0.71197 0.2622 -0.31962 0.17126 -0.56861 -0.097963 0.12802 0.50994 0.035636 0.74127 0.22277 0.39168 -0.044886 -0.39065 -0.34778 0.49884 -0.44055 0.43261 -0.12968 0.82294 0.49009 -0.72443 -0.51844 0.1105 0.76221 -0.5165 -0.59854 -0.25958 -0.15929 -0.26378 0.42008 0.10948 0.035219 0.26794 -0.73197 0.38901 -0.35355 0.5029 -0.20631 0.19648 0.30443 0.27742 0.5068 -0.028959 -0.21245 -0.33778 0.31366 0.39135 0.28277 0.0090645 -0.54481 -0.34776 -0.001217 0.69709 0.35787 -0.34449 0.60301 0.5353 -0.43614 0.63649 -0.071475 -0.17491 -0.40193 0.14563 0.079569 0.11843 -0.37441 -0.48987 -0.52241 0.45252 0.26661 0.035548 0.84708 0.025787 -0.036262 0.13442 0.33091 -0.78528 -0.30244 0.14801 -0.080071 -0.4327 -0.804 -0.41602 -0.45419 0.087609 -0.074064 0.17397 -0.045583 0.36903 -0.28265 0.42485 0.63525 -0.1404 -0.69693 0.42153 -0.11871 -0.38435 -0.87927 0.36944 -0.60417 -0.036265 0.019855 -0.15522 -0.37566 0.32838 -0.020462 -0.035496 0.32122 -0.081286 0.25055 0.50005 0.11481 -0.75347 -0.27099 0.081402 -0.15363 0.060849 0.050558 0.65149 0.17016 0.16636 -0.35462 0.25135 0.17482 0.5248 -0.23927 -0.096159 -0.21015 0.29356 -0.067001 -0.15741 -0.5341 -0.33262 -0.4961 -0.56452 -0.3995 -0.27853 -1.0364 -0.10465 -0.32009 0.12069 0.96642 -0.23404 0.37745 -0.16795 -0.56767 -0.12613 1.1241 0.1246 -0.069967 0.60595 -0.30431 -0.16183 0.2618 0.53468 -0.30021 -0.098142 -0.85222 0.46092 -0.82483 -1.0897 0.67934 -0.16424 0.39871 -0.53229 -0.21998 0.22257 0.0023027 0.38795 
